815 100
xi 0.0019810083 -0.0006185137 0.0039701858 0.0030947123 0.0030128064 -0.004665827 -0.00065244513 -0.004171001 -0.0026458178 0.002199165 0.0016392178 -0.001661284 0.0017537571 0.0014377718 -0.00077211537 0.0027102097 -0.0015668136 -0.00035313246 0.002202494 -0.0029660198 -0.0033027835 -0.0037760849 -0.001949219 -0.0015325479 0.0021866714 -0.003805646 -0.0037407943 0.004124485 -0.0036057392 -0.00019699708 -0.0021262944 0.0002360842 0.0014605087 0.0021715334 0.0050198305 0.0048477184 -0.0052951328 0.0040669087 0.0035967194 -0.0039180405 -0.004848765 0.004293442 0.0017172063 -0.0007059858 -0.004956877 0.001815082 0.0004346824 -0.0042329547 -0.0038423906 -0.00089563633 -0.0003366544 0.00053177756 0.000407526 0.0037789391 0.003269819 -0.0044418396 -0.0031446596 -0.003373408 -0.00017916817 -0.004324687 0.0015074918 -0.0041091023 0.0017026704 0.0019844202 0.00029646172 0.0012112112 0.004335273 0.0038851877 -0.0044199903 -0.0048282202 -0.002366252 -0.002643506 0.002495387 0.000945596 -0.0003931968 0.0027000855 -0.0024100654 0.0017121605 -0.0003471761 0.0015106896 0.004819512 -0.0046113236 -0.0024101976 0.0048455563 0.003503751 -0.002061886 0.0030073705 0.0011045949 -0.002437821 0.0004966668 0.00106239 -0.004655847 0.0020378581 0.00083766493 0.003983014 0.002534967 0.002282883 -0.0012745002 -0.0022898961 -0.0017855992
china 0.0015377684 0.0035720507 -0.0003109999 -0.0033604954 -0.0027334061 0.0041474714 0.0033103668 0.004337174 -0.00053907634 0.0050052605 0.00029245458 0.0017293936 -0.0026163915 0.0020026213 0.0006593455 -0.003384763 0.0027900487 0.0030631914 0.0032705178 0.001953825 -0.0019581057 0.0049836165 -0.0022792404 0.0043460736 0.0019435491 -0.0017700683 -0.0029719707 0.0029252388 0.0037663963 -0.00076500827 0.0010115812 -0.00021127629 -0.0037865725 -0.0021325038 -0.0016841714 -0.0040181098 0.0030702055 -0.00048168428 -0.0037843508 0.001645539 -0.0014830924 0.004104533 -0.0027402367 0.003984645 0.0012976695 -0.0021398074 0.004474675 0.0031896757 0.0043174326 -0.0028331345 -0.002281146 -0.0045343367 -0.00015463402 0.0025262844 9.126501e-06 0.0018359291 0.0033077404 0.0011653757 -0.0008950542 0.0036041785 -0.001149247 0.0009193622 0.0036991534 -0.0012488012 -0.0020820373 -0.004428142 0.00010317901 -0.003581989 0.0036674044 -0.0036720026 -0.0009139185 0.00018394494 0.00082761 -0.00070914 -0.00019312829 0.0047419663 -0.00044403426 0.004571399 -0.002220482 0.004937258 0.0007443305 0.001883899 0.002097366 -0.0027510151 -0.0031721808 0.004578911 -0.0035654877 0.005162715 0.0031420826 -0.0012046921 0.00454564 0.0034604322 -0.0039070393 0.000461075 0.004095606 -0.0002561936 -0.00034424968 0.002166153 0.00010514346 0.0019905898
city -0.0012940586 0.004066026 -0.00090037624 0.0032817433 -0.0013282226 0.004788716 -0.0017982614 -0.0028733981 -0.0014233383 0.001761296 -0.00092649885 0.0039215074 -0.001059539 -0.0006085759 -0.0018443674 -0.0013220805 -0.0030536333 -0.0013124992 0.0016963083 -0.0036245014 -0.0039039727 -0.0025774431 0.0018707842 0.00090740377 -0.0013076813 -0.0031912935 -0.0039608963 -0.0010467533 -0.0022341462 -0.0013965825 -0.0034374716 0.0013483152 0.0037162325 0.0033610866 -0.0029756231 0.0014657573 -0.0015544475 -0.0020922183 -0.0023602876 0.0008571235 -0.0027835013 -0.003817355 -0.003456439 -0.0011601127 0.0001456077 0.0007911201 0.0035809427 -0.004517947 -0.0009459413 3.9690673e-05 -0.004748245 0.004834033 0.0020817257 -0.0014959677 -0.0007166839 0.0010298551 -0.0029410133 0.0020687338 -0.0020360758 -0.0037611711 0.0005524743 0.00049133715 -0.0019133149 0.003453941 0.0026623607 0.0021637045 -0.0018675502 -0.0012497216 -0.002536747 -0.002917806 -0.0015392321 -0.0039100754 0.003854678 0.004167228 -0.0032278337 0.0035502426 -0.0020438156 0.00019523907 0.003227912 -0.0016199957 -0.004509643 -0.0046623275 -0.0012408505 -0.001029596 -0.0010834538 0.0041979086 0.0047617257 4.1240244e-05 0.001731254 -0.0005346144 -0.0042508896 0.0002721694 0.0012225898 -0.00062719407 -0.00176237 -0.00045242682 -0.0016762135 0.00471644 0.0024045496 -0.001498756
university -0.0044733426 -0.0009301562 0.004679619 0.0021121032 0.00062518404 -0.0045908806 0.002406642 0.002424834 -0.0019689053 0.0028139262 0.0012846399 -0.0028694998 -0.0019104345 0.0013778176 2.6762962e-05 -0.001675949 0.0024764792 -0.0018869897 0.0020847844 0.0046081976 0.0016651441 -0.0021119933 0.0026216463 0.0002601911 -0.002865633 -0.0025167412 -0.0047869217 -0.0038382171 0.0039305384 -0.003979393 0.004571517 -0.0045200237 -0.0022208067 0.0034949891 0.0018178386 0.0030590768 0.0019876752 0.0034989577 0.0012892685 -0.001644752 0.000694978 -0.00082263775 -0.0024612863 -0.0014881092 0.0035786235 0.0002519678 -0.00250316 -0.00079623703 0.0007285522 0.0021790075 -0.0018549348 -0.00015723148 -0.0034709976 0.0018946058 0.0002732697 0.0024523465 0.0018791611 0.0014550551 0.0015666047 0.0049617537 0.0013734091 -0.0044971146 0.0036580397 0.003118708 -0.002432723 0.0038618827 -0.0047324914 -0.0027565653 -0.0031434454 0.00023250097 -0.0021410892 -0.003557085 -0.0026438355 0.0011048691 0.002832663 0.0004954066 -0.0027403734 0.0045479764 0.003867004 -0.0036601885 0.002518317 0.0043215672 -0.0039431946 -0.00046846617 0.002793366 0.0006867739 -0.0044888956 0.003638194 -0.0025828138 0.0017908876 -0.0018724434 0.0033985646 0.0019742951 0.0010643108 0.001212477 -0.004200578 -0.0023941586 0.002704936 -0.0011960248 0.0021770087
shaanxi 0.003911698 -0.0019337162 0.0039881966 -0.0029868165 -0.0019487876 -0.0010537269 0.004952235 0.00022499886 0.0013934214 0.0030378553 -0.0003876516 0.004783194 -0.0033621034 0.004150429 -0.002210119 0.0022445375 0.004007671 0.0027757357 0.0048156856 0.00028629942 0.0020398423 0.0043387264 0.004295058 -0.0007340446 -0.0045556505 -0.0008057293 0.0009828014 -0.003638643 -0.0014947049 0.003637855 0.002117156 -0.0022031467 -0.004928056 -0.00010674457 0.0033562267 0.00071416184 -0.0013398097 -0.0039416077 -0.0030054823 0.004211416 0.0017852857 0.004356022 -0.0017930407 -0.0042625796 0.003963347 -0.0045201234 -0.0008414058 0.0016083851 -0.004609471 -0.0002925824 0.0015448673 0.0043061324 -0.002937906 0.0044156327 -0.0041463673 0.0043225386 -0.0014464726 -0.0026836167 -0.0029945849 -0.0038504645 0.0011326403 -0.00055572164 0.0007556025 0.0037218542 -0.0044609457 -0.0026022426 0.0011595282 0.004428651 0.00018426191 -0.0043507842 0.0021078726 -0.003799282 0.00014301743 0.0014165143 -0.0011663961 0.002950174 -0.004081701 0.0043502017 -0.0013347713 -0.0030226258 -1.1380314e-05 -0.0043533524 -0.0035586874 0.002475998 0.0025777651 -0.0029414168 -0.003912599 0.00229189 0.004608812 0.0025709965 -0.0037231403 0.002432063 0.0004671753 0.004336502 -0.0028385778 -0.00017410981 -0.0019757354 0.0039270204 0.00093101215 -0.0013284116
chinese -0.0040291552 -0.0035050772 0.00059675536 0.002501089 0.0004003958 0.00171964 0.0036108454 -0.001443227 -0.00374161 0.0040164003 -0.000121480734 0.0016660482 -0.002557485 0.0016823341 0.003844901 0.0013978925 -0.0018757778 0.0017838316 0.0021164168 0.004464067 -0.0028705667 0.0012748273 0.0021103192 0.0006189336 0.0014228252 -0.0011551813 0.001987884 0.0050236997 -0.0006133235 0.0013479943 0.0010931996 0.0018172256 -0.0046833293 0.0022488504 0.0012901907 0.0049956557 0.0017368133 -0.0020310006 -0.0043950686 0.0031803288 -0.0037607858 -0.0044988194 -0.004149099 -0.0035416451 0.00040781076 -0.00267769 -0.00046914988 -0.003608824 -0.0018031633 0.0025644242 0.0020077263 0.0037579203 -0.0020139553 -0.0024718447 -0.00022133025 -0.002807233 0.00018464887 -0.0008950737 0.00011870611 -0.0037193159 0.0048775603 -0.0003752865 -0.0024153634 -0.0022808989 -0.003151726 -0.0015099719 0.00065594603 0.00021389477 -0.0035826652 -0.0017096669 -0.00060006225 -0.0018483293 -0.0013640232 0.001236586 -0.0033171554 -7.836858e-05 -0.0025457842 0.0039717923 -0.0013780537 0.0012832338 -0.0028658456 -0.0023680665 -0.0027265782 -0.0032334721 0.0016445915 -0.0025225622 -0.0026272647 -0.0037906014 0.0027504142 -0.0024737031 0.001147309 0.0041555464 0.0031125173 0.0021253803 -0.0039371066 -0.0005973503 0.0041274037 -0.0008757302 0.0037839108 0.0006617349
people 0.0042529963 0.0005994116 -0.0003262903 0.0022528265 0.0017210232 -0.0026687374 -0.000801099 -0.0019929577 -0.004190048 -0.004610659 0.0001887731 -0.0044616577 -0.0028606541 0.0016380618 -0.0019053048 0.0017325088 0.0023830847 -0.004617394 -0.0017240354 -0.0024732347 0.0036576292 -0.0024894327 0.003260932 -0.003660772 0.0035241118 0.0019643204 -0.004834939 0.0014227456 -0.0017111057 -0.00015235647 0.0038276848 0.0033228272 0.0011930865 -0.0025277343 0.0038804614 -0.0013738264 -0.0029323688 0.0036135798 -0.00046923378 -0.0003080032 0.0046223574 -0.0014551538 1.4036889e-05 -0.00085787056 -0.00028880563 -0.004820793 0.0032896283 0.004383883 0.004218472 0.0036679797 0.0033459286 -0.0020787413 -0.0017310813 0.0018606263 -0.00047502035 0.0009762215 -0.0024838264 -0.003369976 -0.002599667 0.0035331862 0.0006280368 0.004715205 0.0031157802 -0.0031169525 0.0016216805 -0.0009496795 0.0047671073 -0.0027493974 0.0050253416 -0.0006519024 -0.0013057942 -0.0021151453 0.005189345 0.002371677 -0.0036438035 -0.0042415876 0.0012683938 0.0031757539 -0.001181362 0.0047574793 0.0018284568 0.004076455 -0.0041564186 -0.00066442793 -0.0012082818 0.0039699697 0.0030879173 0.003777906 0.0036855985 0.0037115598 -0.00096769986 0.002919029 0.0032748128 0.0030571201 -1.9464398e-05 0.003063408 -0.0012561068 -0.003987141 -0.0039055336 0.0040751556
province 0.0015225471 -0.0003345406 0.002622736 0.004687508 0.004731438 0.0011938295 0.0029997271 0.00014948464 -0.004881003 -0.004477635 -0.004282889 -0.004596591 -0.0027434824 0.0010725175 0.0001688063 0.0017685944 -0.004935732 -0.0007841245 0.0026752925 -0.0023851648 -0.0028629433 0.004753724 0.0015791621 0.0023184281 -0.0008627906 0.0028710468 0.0027547718 0.0014047113 0.0013441882 -0.0022276714 0.0030611055 -0.0012965541 -0.0004564253 -0.0017274473 -9.198674e-05 0.004797739 0.0024295265 -0.0017949508 -0.0014385927 0.004995494 0.00075173646 0.0013354725 -0.0027681147 0.0041109575 -0.0045594466 -0.000107972 0.0025856192 0.0018513936 -0.0035839519 0.0029140199 -0.0023775983 -0.002347515 0.004064472 0.00094107556 0.0012643175 0.0041352366 -0.0024428696 -0.0015248187 -0.003786516 0.0045157927 0.0033199587 0.003451471 0.00079986587 0.0023122556 -0.00092375913 -0.0019387581 -0.0022976147 0.0016082658 -0.0009217156 -9.3768555e-05 0.0035021512 -0.0035292867 0.002630931 -0.002318926 0.0031207406 0.0005827112 0.0036717495 0.001303376 0.0030027782 -0.0017856184 -0.0005966056 -0.0041141077 0.0010059004 -0.0008507989 -0.00030819196 -0.00029257656 0.0022551673 0.0011657228 -0.00490768 3.7466118e-05 -0.0014587735 0.0014353095 -0.0020339845 -0.00464615 0.002227155 0.004845141 -0.000662762 -0.0036094468 0.00087151746 0.004224763
terracotta -0.0033856723 -0.0005739486 0.0035240096 0.0024089252 -0.0043653874 -0.0006739798 0.004378914 -0.0027570124 0.0018696889 3.88333e-06 0.0010873061 0.0017800931 -0.0048501147 -0.0044671884 -0.0022249727 0.0014744991 0.0034512726 0.004332605 0.002768045 -0.004200795 0.0003919453 -0.00041222863 -0.0015546003 0.0038729883 -0.0019733892 -0.0038243188 -0.0006396692 0.0028113874 -0.002716847 -0.0031198766 -0.002452971 0.0013243306 -0.0010587065 0.004141861 0.0046047317 -0.0036206774 -0.0033374885 -0.0006291547 0.0033886132 -0.004021118 -0.0034130316 -0.0018974384 0.0012664588 0.0030077724 8.248274e-05 0.0027585118 8.7981374e-05 0.0015752624 -0.0037000158 -0.0023902962 0.0014051168 -9.057026e-05 -0.004408426 0.00057446305 -0.004464274 0.0030219578 -0.00030514368 -0.0032973613 0.0040267017 0.00049995 -0.002095637 0.004321708 0.0013018923 -0.0032373297 0.0033696436 0.001956243 0.0004468171 0.0033320067 0.0018426474 -0.0048621064 0.0038800496 0.0019739692 -0.0035018525 0.0013617638 -0.0015107478 -0.002847226 0.0026607967 -0.0044452767 -0.002286723 0.00019765638 -0.00039041773 0.0016463094 0.0048827315 -0.00043896167 0.0043385336 -0.0033790667 0.00024000905 0.002418244 0.0015473523 0.0008220478 -0.003327332 0.0044014584 -0.005008359 -0.0031022779 -4.2331725e-05 -0.004395342 0.0018710409 -0.0031495583 0.0009914904 -0.0044776103
beijing 0.004473003 -0.00024571555 -0.0020279381 0.004587752 -0.0034762688 -0.0022298947 -0.001125823 -0.0022900298 0.0017837717 -0.0022630347 -0.0046298886 -0.0027673696 0.0011045659 -0.0009692185 -0.0040419414 -1.6589922e-05 -0.0044745645 -0.0038676169 0.0023960494 0.004519525 -0.0009311405 0.0031345058 0.00084782904 -0.0018901821 0.0013110241 0.00070991914 0.003907334 -0.0039701234 -0.0018371567 0.0018125927 8.966119e-05 3.870254e-05 -0.0044626305 -0.00039023708 -0.0028851575 -0.0048289434 -0.0020626436 -0.0006315471 -0.00071770226 0.003941924 0.004757752 0.0021893415 0.0038871535 0.0015727768 -0.0045149666 0.0041356664 -0.0046920483 -0.00019510428 0.00020115223 0.0044581806 -0.0020467492 -0.004805291 0.0038748386 0.003840175 0.0040852884 0.002290576 0.0021305787 -0.00041853267 -0.0021916395 0.00025193076 -0.004833382 -0.0037778923 0.002623635 0.00039782602 0.001338044 0.0038522554 -0.0030630627 0.00058469793 -0.0006002175 -0.003613771 0.0002682768 -0.0044419207 0.0029320517 -0.004378536 -0.0026337872 -0.00012177026 4.8755453e-05 0.0020879675 -0.0007325644 0.0010668908 0.004768738 -0.0012537015 0.0029616174 0.0041981214 -0.004553831 -0.0034517338 0.0020168931 0.0005498004 -0.00024674018 0.0043051564 -0.0040651797 0.00377212 0.002322795 -0.0018037991 -0.0045131845 0.0027444724 -0.00131041 -0.0013876366 -0.0003765953 0.0029345048
capital -0.001433611 0.0021021108 0.0029667893 2.248321e-05 -0.0007913841 -0.004950619 -0.0036875901 0.0027046492 0.0008865388 0.0021544686 -0.004037264 -0.0037558603 -0.0037031313 0.0022905078 -0.002380826 -0.003973541 -0.00035347327 0.004645235 0.0030767312 0.0043507265 -0.0033017297 -0.0040321173 -0.0030284282 0.0022026456 -0.0022371053 -0.0027595449 -0.0020197562 0.0024234133 0.0048086485 -0.0034785634 -0.0012999553 -0.0011533692 -0.001963576 -0.00074449804 -0.0007460295 -0.0034145194 0.003746936 0.00053093233 -0.0017137778 -0.0012477045 -0.003302142 0.004071323 -0.0023580922 -0.0047736797 0.0016341425 -0.00032395744 0.0037015374 -0.0019166565 -0.0005571736 0.003831934 -0.0021692882 -0.0024377457 -0.0010142762 0.0026022429 -0.004065754 -0.0038222182 -0.0004983163 -0.00080754067 0.0022963814 -0.0026347507 0.0040223585 0.003780238 -0.0009416823 0.0027075687 -0.0039483183 0.0017200805 0.004653519 0.00039162723 0.0023507774 0.0014182824 -0.0018536642 -0.0022322268 -0.00088046904 0.0014256012 0.0037704539 -0.0039154883 -0.002079556 0.00014146503 0.0018303911 0.0042496724 -0.0024541 0.0028882201 -0.0048569296 0.0014638874 0.0041590207 0.0045783045 0.0033553017 0.003493494 0.0026448069 -0.0024064202 -0.0014102369 0.0038438288 0.0025652794 0.0019486042 -0.0024156629 8.020768e-05 0.0010449191 -0.003640095 -0.0035217332 0.0032149768
shanghai 0.003014457 0.0043393876 -0.0025397073 0.0032613543 0.00044749878 -0.004636883 0.0023670304 -0.0015797307 0.0010602304 -0.003499644 -0.0034328997 -0.0043630768 -0.0030764423 -0.0026026855 0.0046342136 -0.0043897466 -0.0010061582 0.003999481 0.0025624807 0.00019891471 -0.005251958 -0.001942082 -0.0020170184 -7.102781e-05 -0.004855286 -0.003084355 0.0008962733 -0.003283173 0.003669625 0.0010021843 -0.0030955796 -0.001120699 -0.003078586 0.0047344924 0.0025493542 0.003488226 -0.0018802087 0.0044910735 -0.0012856469 -0.0024069245 -0.003822186 3.057395e-05 0.00082268816 -0.003070055 -0.0026696268 -0.004535141 0.0008898634 0.00081968046 0.0023764821 -0.0006637415 0.00090043014 0.0052162283 -0.0013761143 -0.0034274817 -0.0005380962 -0.0002109889 -0.0005269574 -0.0009198347 -0.00042032174 -0.0035868287 -0.0006530154 0.003899072 0.0026660173 -0.004742177 0.0038905023 -0.0019038059 0.0038788996 -0.0038564177 0.00095294043 -0.0031667317 -0.002844067 -0.0028192932 -0.0022710222 -0.003701874 0.0030280277 -0.0032269524 -0.003472976 0.002364065 0.0015427686 -0.0044399044 -0.0022718962 0.0027752118 -0.0017508551 0.0008941238 0.0032228725 -0.0043290574 -0.00030127013 0.0021185903 -0.004188433 0.0023424937 -0.0038162742 0.002896536 -0.0021438778 -0.00089661457 0.0045201583 0.00043595993 0.004089867 -0.0024643368 0.0045257933 0.0027468232
department 0.0019751608 -0.0023336473 -0.0022258493 -0.0006405821 -0.0021754098 0.0033979267 -0.0010541322 -0.0029396077 -0.0012680748 0.0026036268 -0.002822579 0.0034207036 -0.0013862067 -0.0011639844 -0.0015813048 -0.001852376 0.00013692275 0.004969985 -0.0019439375 -0.004069918 -0.0036238083 0.0026257406 0.0014714109 0.0018003677 0.0006370607 0.0015831955 -0.0028085448 0.0025776527 -0.0037308647 0.0007624172 -0.0005147957 0.0024841013 -0.00023608145 0.0028362207 0.0051116166 -0.0035122323 -0.0038395587 -0.00030961956 0.00047219693 -0.004622496 0.0023251616 -0.00023458891 0.001577442 0.0022807622 -0.00037441702 -0.0015474306 -2.6440197e-05 0.0026018545 0.0043789046 -0.001043308 -0.0038230885 0.0008185369 0.0019512434 0.0042747813 0.00071351556 0.0018577892 0.0013472317 -0.0010862576 -0.0036830057 0.0038184137 -0.0025801545 -0.0008339494 0.0028374537 0.0025720769 -0.00416562 0.0008604779 0.0031786864 -0.0012807447 0.0036115206 -0.0034372287 -0.0011323551 0.0019465365 -0.0012109096 -0.0012521881 -0.0026047407 -0.004155965 0.0031946634 -0.0029481782 -0.0048491666 -0.0020214336 0.00078183715 -0.0006492046 -0.0023282864 -0.004682278 0.0028212862 0.00041131483 0.0015016233 -0.00036690134 0.001100512 0.003171182 -0.0035401676 0.0046098027 -0.002275004 0.004963629 0.003924404 -0.003210538 -0.0018626758 0.004721195 0.0024732905 0.003383496
warriors 0.0037999093 0.0035413704 0.00058359315 0.00090941024 0.0033535643 0.0006266268 0.0041981568 0.0013430426 0.0016729241 -0.0048795324 0.00020241439 -0.002496516 0.0040504 0.0028834925 0.00048265923 0.0018127923 -0.0046623577 0.0015393073 0.004488283 -0.0021270895 0.00012250546 0.0007480845 0.0042565195 0.0006836875 -0.003443325 -0.003054984 -0.0007351036 2.510776e-05 0.0030918682 -0.0040929164 -0.0012934224 -0.001499549 -0.0018797972 -0.00027850133 0.001306993 0.0032453085 0.0022060177 -0.00031085178 0.0010263794 0.004131743 -0.002619556 0.004049621 0.0033396524 0.0032897342 -0.0016501982 -0.0017956326 0.0031702993 0.003348485 0.0011565962 0.004315919 -0.0024121224 -0.0011127994 -0.002664674 0.0008024857 0.0017479549 -0.002805309 0.0048507275 0.0031750507 -0.0030057174 -0.0009840716 0.0016120593 -0.00035607064 -0.004873374 -0.0004770144 -0.004086134 0.0003402641 -0.0031972842 -0.0042161266 0.00027657446 0.0013598832 0.0022602282 0.0020223614 0.0022170614 -0.003473038 -0.0028991122 0.0033238311 -0.0042076823 0.0012508408 -0.0018382034 -0.004212727 -0.001814284 -0.004733468 0.0042194347 0.004685313 -4.937109e-05 -0.0007287787 -0.004462899 0.0007483531 0.004617906 -0.0018512642 -0.004936284 0.001367013 -0.00072063215 -0.0036623413 0.0015344541 0.0016231707 -0.002355137 0.00082809565 0.0027466048 -0.0017176651
000 0.0008587558 0.00368146 0.0049365037 0.0041674017 0.004570987 0.0030194141 -0.0008016876 -0.0028538618 -0.0020631575 0.0018001603 -0.004662327 -0.0019722665 0.0019301064 -0.000642032 -0.0015501814 -0.0034400318 0.002005797 0.0009724261 0.0042363233 0.0018694764 -0.0034567362 0.004053359 0.00015734452 0.0039921324 -0.004049442 0.0025621036 0.0002805892 -0.000499632 0.0046205125 -6.200752e-05 -0.0037052755 0.0015197649 0.0024288748 0.0011289618 -0.0035673254 0.004359795 -0.0030173017 0.0028290215 0.0014697509 0.0031069014 0.002549506 0.0042856764 -0.00389351 -0.0038025433 0.0037462977 -0.003302183 0.0022473992 -0.004495023 -0.0018087528 0.0034717768 -0.003830837 0.0046663806 -0.001671381 -0.0021258255 0.0004728492 -0.0012543178 -0.0024583375 -0.0028671767 0.004043673 0.0021940537 -0.0009533434 -0.004548313 -0.0015470845 0.0005099968 -0.0018978423 -0.004823736 -0.0033151894 0.0009648488 -0.0006336391 0.0040417216 0.0006151213 -0.0047595203 0.0038387303 0.0017510676 0.0024859984 0.0023849919 0.0015884662 -0.0046449294 -0.00068148214 -0.004570164 0.0047356947 0.0029742657 -0.0016409425 -0.0011894794 0.0011199816 0.0017360357 0.0015428487 -0.0009352583 -0.004902437 0.0008102139 -0.004588175 -0.0047822115 0.00162812 0.0048254034 -0.0011111166 0.002727506 0.004558211 -0.0031544787 -0.0013894036 0.00228287
lanzhou 0.002059004 -0.0049871467 0.004653036 -0.00092857 -0.00043819708 0.0036765556 -0.0018861654 -0.004375472 -0.001485411 -0.002422873 -0.00083361426 -0.0038950662 0.0016786396 0.0018671013 0.00018696833 0.0018790617 0.003527338 -0.0012081407 -0.0032789886 0.0035395832 -0.00403689 0.0039966097 0.0040698578 0.0012710096 -0.0015467105 -0.0048774322 0.0033671693 0.00068542984 0.0020764682 -0.004194317 0.001456993 -0.0009511046 0.0043693804 -0.0028656386 0.0016459088 -0.0021140464 -0.004027565 0.000574936 0.0022417079 -0.0007058135 -0.000470948 -0.0008261879 0.004878741 0.0038283193 0.004911532 -0.0017915651 0.0017886272 -0.0021940137 0.003416601 -0.0025740033 0.00016569224 -0.0041714017 -0.0036272462 0.0011352528 -0.0009896731 -0.0030200542 0.0044488623 -0.0048162467 -0.0036679495 -0.001590059 -0.00021883367 2.8578648e-05 -0.0010860591 -0.0043668225 0.004221677 -0.0027075752 0.0021742352 -0.0034091384 0.0035750845 0.0012834703 0.0008508623 0.0040547703 -7.904702e-05 0.0044068373 0.0028669387 0.0025648559 -0.0018872386 -0.000856021 0.002576786 0.0017747905 0.0012826462 -0.0045583886 -0.001982342 -0.0007716987 0.004505984 0.00040947233 0.0016273663 -0.0032444773 -0.0019054454 0.0006310314 -0.0020389843 0.0011264026 -0.0024429464 0.0025677811 -0.0004895684 0.005083017 -0.0019584647 0.004217893 0.0026250996 -0.005125469
hospital -0.00072710414 -0.0035820198 0.0028228022 0.00026470807 0.0024377434 -0.002883511 0.0037950904 -0.003182166 0.0029518344 -0.0008146689 -0.0002606574 -0.0044282805 -1.3602974e-05 -0.0027008294 0.0023949132 -0.0038700325 -0.0019976152 0.0035318476 0.0012363706 -0.0021242036 0.0029329143 0.00018122014 -0.0013623039 -0.0027028825 -0.0007947751 0.0038824778 -0.0009974346 0.0018938013 -0.004753829 -0.0023486684 0.0041865045 -0.001052556 0.0018871153 0.0038140155 -0.0013436895 0.0008661342 0.003568597 -0.0048490055 0.004016978 0.0039974353 0.0045657717 0.0018344169 0.001806033 0.0013788072 0.0026951083 -0.002607104 0.0021588493 0.0030240684 -0.0016169898 -0.0030053477 -0.0037373903 0.0049935197 0.00083391037 -0.004314096 0.0015897662 -0.0023367684 -0.0018570528 0.0023173532 0.00086147944 -3.72592e-05 -0.0004292845 -0.0023095817 -0.0043423423 0.0019045515 0.0028623443 -0.0044689067 0.0022018915 0.0023308801 -0.0029822425 0.0023029537 -0.0046663517 0.002545484 -0.0024251582 0.0010469244 -0.0031229656 -0.0016606624 -0.002111766 0.0032895834 0.0030544691 0.0030548135 0.0045079407 -0.0041873166 -0.0038076837 -0.00365935 0.001986234 -0.0019439613 0.0014831505 0.0034665249 0.0012213733 0.0022307634 0.0029823503 -0.0005156219 0.0024251249 -0.0023667456 0.004897102 -0.0028539672 -0.0009777151 0.0015084188 -0.0019878913 0.0037460183
tomb 0.0033178942 -0.0047002817 0.00042658226 6.9265574e-05 -0.002835435 0.004166415 0.005168765 -0.0027569823 0.0010438279 0.0004887215 -0.0016165707 0.0023824123 0.0037661435 0.003921818 0.0006545639 -0.0031230587 0.0040992084 0.0019546684 -0.0025947157 -0.002428071 -0.0011753523 0.0027618348 -0.001424523 -0.0048185103 0.00066227326 -0.0020655773 -0.0014203247 -0.0019437802 0.0010628041 -0.0029525575 0.0029577382 0.004608733 0.0039198636 0.0013460069 0.0015942027 -0.003685093 -0.0033613793 -0.0007044043 0.00016316412 0.0023618813 0.0021696242 0.0015078868 -0.004146391 0.0017680419 -0.0026099165 -0.0007785676 0.002665301 -0.0009508407 0.0032441628 -0.0033117305 0.0010345982 0.0031484093 0.0009218512 0.00156818 0.001855881 -0.002267385 0.0042243986 -0.0031091117 -0.0004993281 0.004410066 0.0017941969 0.0028983655 -0.0021814504 0.0014573274 0.0031532294 -0.0014633066 0.00035891624 0.00084393675 0.0012401887 -0.0028041513 -0.0047577578 0.0006642066 0.00079698826 0.0022512341 -0.0008250706 0.0011969601 0.0007560608 -0.0047685113 0.0016959192 -0.00221435 0.0035469432 0.0035641722 0.0013367935 0.0027999554 0.002419499 9.394354e-06 -0.0034723342 0.0017941145 0.0041017355 -0.0020462086 0.002798276 0.0014043332 -0.0007129693 0.0006114337 0.0031824396 0.0013695022 -0.00026677642 -0.002710871 -0.0024592038 -0.002834053
chongqing 0.004108782 -0.0012676377 0.0040659974 0.004074999 -0.0023383757 -0.0049632983 0.0039134216 -0.0020107327 0.0040893704 0.0037076464 -0.0036263447 0.0034573246 0.0023381296 -8.904824e-05 0.004344515 -0.0037097707 -0.0011579787 -0.0035980826 -0.0012936348 0.00071291556 0.0033322987 -0.004843109 -0.0032995045 1.6575012e-05 -0.0008033525 -0.0014020447 -0.00028767122 -0.003970579 0.0031257272 -0.0037891187 0.00018301967 0.00014875008 -0.0022616312 -0.0024025496 0.0033761736 0.0047744177 0.00063192303 0.0020171949 0.0029887648 0.0047801514 0.0022954503 0.001734852 0.0043807616 0.0017425533 0.0014316955 0.004639256 0.002070882 -0.0016543436 0.0046663894 0.0027805513 0.004794075 -0.0046834354 -0.0020650297 -0.0022045018 -0.0019406765 0.00039270413 -0.004185811 -0.0048481757 -0.0027595125 0.004813351 0.0033139677 -0.0024822373 -0.002096129 0.0035868112 0.003140096 -0.004036794 -0.0041642054 -0.00197949 0.0040605688 -0.0020624013 0.0010467519 -0.0012020419 5.8249487e-05 0.004174865 0.0045407023 0.0024520524 -0.002167678 0.0033234365 0.001139249 -0.0008183436 -0.0035270008 0.0013062145 -0.0013620881 0.00429296 0.0027150037 0.00014915058 0.0035681445 0.0045913523 0.0029305683 0.0011913354 -0.0018620093 0.0040986193 0.0041139727 -0.0029398862 0.0028719045 0.004330426 0.0034580308 0.00095837185 -0.0030157622 0.002289001
jiaotong 0.0014145956 0.003749854 0.00116344 -0.0031853484 0.0044197096 0.0024799206 -0.0010629094 0.0022930128 -0.0015173914 0.004154419 -0.004215143 0.0015367232 0.0011779232 -0.002845294 0.0006515408 -0.00307986 0.00095031824 0.0018188809 -0.0011539796 -0.0030991202 0.0046018073 -0.003460657 -0.0020599111 0.0025270418 -0.00023287792 0.003514091 -0.002870487 -0.001345355 0.0032785458 -0.002280771 -0.004532609 0.0024102589 0.0013109535 0.0019459317 0.0012276169 -0.0019122706 -0.0043502254 0.00043501012 0.0005632055 -0.0017511575 0.004129144 0.0042395233 0.00278304 0.004735969 -8.3124374e-05 -0.0048121247 -0.0009158381 -0.0005498355 0.0039701187 0.0025915354 0.0010312571 0.0052609895 -0.0040621366 -0.002700894 0.0041934066 0.0012312484 0.002832003 -0.00059640635 0.003615042 -0.0036981092 -0.0037961332 -6.470053e-05 -0.00064904307 0.0037956033 -0.004681958 -0.0016530021 0.0010093102 -0.0018382095 -0.00049097167 0.00030228499 -0.003198302 -0.002832406 0.00060968107 0.0009793023 -0.0045709657 0.0007960887 -0.0036009492 0.0047361203 0.002364106 -0.0012302976 0.0049610585 0.0016177077 -0.00051097234 -0.0003250651 0.005022575 0.004356993 0.004820217 -0.0027358457 -0.0041583152 -0.0022440953 -0.0043781525 -0.0019850556 0.0040093353 0.0013170256 0.0032567023 0.0038049326 0.0037858821 -0.00028410988 -0.0006326615 0.0032703236
school 0.0042138323 -0.0002581052 -0.002358179 0.00048817074 0.0034429836 -0.0038098693 -0.0037529604 0.0026444925 0.0013906147 0.00029711524 0.0011657018 -0.0015039222 -0.0032709897 0.0013412643 -0.0043595657 0.0038414327 0.0012562093 0.0036822336 -0.0013937468 -0.0012260587 -0.00066828687 -0.0023736188 0.0013228438 0.00085936504 0.0021373385 0.003965597 0.0013288829 0.0043343054 0.0006974602 0.0010436297 0.0015178042 -0.0021092412 0.0013382087 -0.004465722 0.0041235145 -0.0014371715 0.0002440005 -0.0019534198 -0.0037937437 -0.0009500669 -0.0010765324 0.0015701167 0.0018469911 -0.00105739 0.0028500725 -0.0027603263 0.0003466285 0.0022174316 -0.0030877362 0.0038214836 0.0013734669 0.0019133352 0.00081340485 -0.0025495489 0.0040938766 0.0033738916 -0.0026637693 0.003563836 -0.00012979706 -0.0016901896 -0.0028663068 0.002540044 -0.003065057 0.0040637176 0.00021973913 0.0004662181 -0.00085176347 -0.0037329479 -0.00054875936 -0.0013354439 0.00390955 -0.0037895285 -0.0009094462 -0.0014808716 0.0041999486 0.004045878 -0.0047401977 -0.0013760091 -0.001936359 -0.004330932 0.0022347441 -0.0027225008 -0.0049543544 0.0021417532 0.0028847833 -0.004426121 -0.0015900965 0.00036280527 -0.00019281534 -0.0050557056 -0.0017272487 0.0039095245 -0.0007637266 -0.0022666182 -0.004380732 0.0007899416 -0.0015065996 0.004162801 0.0034392683 0.00017551724
center -0.004069007 0.0016064536 0.0041984976 0.0038807723 -0.0023938944 0.0023582457 0.002899165 0.0022256963 0.0016289343 0.0027261374 0.0032370628 0.004438385 -0.004431425 -0.0011763652 0.0026720092 -0.0017704117 0.0038403058 0.002610248 -0.001171543 -0.003204899 0.0013996831 0.0030762113 -0.0028981704 -0.00024744865 -0.0015506006 0.0017770601 0.0019701866 -0.00042529174 0.00027642577 0.003748131 -0.0008353362 -0.0017695084 0.0036587983 -0.00079085695 0.0024756128 0.0045570056 0.0043629208 -0.0017068868 -0.002336067 0.00020245265 -0.0014368852 0.0013930171 0.0040904284 0.00357353 0.0030593504 0.0024389199 -0.001969057 0.00056714966 -0.0048372946 0.00062438316 -0.00069246884 0.0017664514 -0.0025854162 -0.0034860899 0.001835859 0.0010083818 0.0024776347 -0.0048688888 -0.0048107756 0.0029724392 0.001546223 -0.0007788008 -0.0013943375 -0.0047985916 0.0026739587 -0.004172683 0.0005625522 -0.0034667111 -0.0037864496 0.0023645926 0.002735822 -0.0015547354 0.0011187334 -0.0050210212 0.001340153 0.0009501714 -0.0039177756 0.0002663539 -0.0014472342 -0.0010995313 0.001736726 -0.00298599 0.002559951 0.0014679404 -0.0040245513 -0.0029473435 -0.0012468459 0.0030370033 0.0030588286 -0.0046539004 -0.0021787644 -0.0023303577 -0.0032148545 -0.0026462106 0.0018113405 0.0023659677 0.0011899603 0.0048713433 0.0038700716 -0.0037984722
northwest 4.855036e-05 -0.00050027407 0.0003721448 0.0036085525 -0.004568681 0.0022680722 -0.00072873296 0.00085286715 -0.0021275033 0.001000931 -0.003444528 -0.0017788425 -0.004319102 0.0013443138 0.0042672716 -0.00041533864 0.0044636377 0.004787538 0.0034059726 -0.004108687 -0.00021934582 0.00086257106 -0.0030152628 -0.0009484987 0.0031503346 -0.0024500485 0.0009764946 0.0028715222 -0.0034573814 -0.004974363 0.001177319 0.00480088 0.0046210913 0.0031005207 0.0043671182 0.002894645 -0.0048282775 -0.00164296 -0.0008305409 0.00016057685 -0.0026223173 -0.0020444838 -0.0020844145 -1.7781325e-05 -0.00012608773 -0.0039597875 -0.002936285 0.0020386013 -0.0044058766 -0.0029494676 -0.0018844879 -0.0017858669 -0.0030195646 -0.0029940852 0.004995934 -0.0038949596 0.0035221337 -0.0009978578 -0.00315184 -0.002012375 -0.00075916806 -0.0018431664 -0.0049826144 -0.0038360455 -0.0036757996 0.00041464227 -0.0016887025 0.0016335242 -0.0047066337 0.0025194888 0.0030116048 -0.0035096172 0.004255985 0.0023073584 0.0032464196 -0.004396235 0.003993197 0.0016381075 0.003272318 -0.0034817727 0.0038192556 -0.0042969557 -0.0038632483 0.0012122488 -0.003679414 -0.0038191755 0.004086745 -0.0034638797 -0.00076606 -0.0013540634 -0.0015430697 0.0045799357 -0.0016902154 -0.0038706365 -3.3629913e-05 0.002504601 0.0035648325 0.0047646 -0.0027656918 0.0019716125
laboratory -0.000213797 0.002367012 0.0033298845 -0.0048540537 -0.001754367 0.0027599162 -0.0022705228 0.0045628855 0.0048100287 -0.004130909 0.0030845285 -0.000751191 -0.003814351 0.0019393591 -0.004714117 -0.00069721683 0.0018549133 0.0012052516 -0.0041512237 0.0049184333 0.00347308 -0.003689968 -0.0042904923 -0.001034121 -0.004751413 0.0018616602 0.0021283224 0.0018590628 -0.0021816534 -0.0011873393 -0.003336141 0.0020842827 -0.0039736303 0.0016074823 0.0037258088 0.0010343782 0.002845404 -3.4294873e-05 -0.0004994083 -0.0046252673 -0.0002127845 0.00026193383 0.0045646606 0.0029789286 0.0037152793 -0.005102158 0.0021073048 0.0047029136 -0.0024134577 0.0013332838 0.004569177 0.004903187 -0.002425472 0.0030963607 -0.00042271943 0.0016213007 0.004509228 -0.00426629 0.002837351 -0.0010686406 0.0041386443 0.001865921 -0.0037075335 0.0050342665 -0.0015696094 0.0021472878 -0.0040613576 0.0039289664 -0.00471417 9.724205e-05 0.00059105805 -0.0014211776 -0.00083137647 0.00023260698 -0.0009152519 0.001177759 0.0025821768 -0.0017432059 0.004637601 0.004944632 -0.0036276344 -0.0013462893 -0.0014728181 0.003051202 -0.0041690646 0.0010565991 0.0020574154 0.003199591 -0.0039700237 -0.0022003346 -0.003090938 -0.0048244926 0.0015700904 0.0023949074 0.0037858773 -7.023216e-05 -0.0033883527 0.0020619577 0.0045560487 -0.0030444416
army 0.004148404 0.0031275477 -0.001603348 0.0028293796 -0.0028279575 0.0003305615 0.0005855913 0.0033408885 0.0039877975 0.0042324164 -0.0037489492 -0.0041386574 -0.0002189715 0.0030249993 -0.0017894063 -0.0030228747 0.0034348522 -0.00491235 0.002052105 -0.0022796965 -0.0010637232 0.0045354594 0.0018759993 0.0016758443 0.0039031138 -0.004091599 0.0025248164 0.0032045648 0.0040532136 -7.712277e-05 -0.0021986233 0.004126076 0.0029199244 -0.0015949996 -0.0017030338 0.002658298 0.0021012502 0.00272135 -0.001670043 0.0050062425 -0.002957977 0.00066134566 0.0023104232 0.0025921026 0.0005487411 -4.4758e-05 0.00265177 -0.003840668 0.0049565155 -0.003313869 -0.0043062437 0.00037451315 0.0014014828 -0.0036080074 0.0011453319 0.001057163 -0.0048405365 0.0009163647 0.0034774076 0.0045579104 -0.0026569646 -0.00075230264 -0.002506775 0.002586618 -0.0002710343 0.00022555007 -0.0028416307 -0.004018398 -0.0019124452 -0.0005735013 0.0017987926 -0.0011976882 0.0024582406 0.0039152065 -0.00069272635 -0.0016008251 -0.0040642037 -0.0018894109 -0.0039385078 -0.0038503862 0.002828251 0.00036238888 0.004472093 0.0049090786 -0.0038605444 0.0039621955 -0.0036995187 -0.0037321062 -0.002376841 -0.0026339663 -0.0048612184 -0.0017144373 0.0037895257 0.0039026942 -0.0008528303 -0.0031138123 0.0031682628 -0.0011153404 -0.003345639 -0.0024531544
day -0.0023341386 -0.004450167 0.003945549 0.004756404 0.0008262756 0.0033855832 0.002565172 0.002080817 0.0024149579 -0.0041311765 -0.0038738071 -0.000346655 0.0040351497 0.0029786301 0.004753085 0.000791501 -0.0021072195 -0.0037326831 0.003410491 0.0025495582 -0.003451404 0.004692243 -0.0004683564 0.0024498121 -0.004772966 0.004277535 0.00423498 -0.002316964 -0.0030798975 0.003101267 -0.0005335939 -0.00083062233 -0.0006182062 0.00041360102 0.0031180116 -6.957999e-05 -0.0026472476 -0.0033465165 -0.0008975235 0.0014757074 -0.0021824741 0.0041835727 -0.0031965245 0.0023915141 -0.00041167001 0.0011576507 -0.0044131516 0.0033571 -0.0037133677 -0.00025174892 0.0041913628 -0.003469381 -0.000639167 0.0024841193 -0.00319442 6.347769e-05 0.0031433427 0.0004921103 0.0016394879 0.0017943868 -0.00047734767 -0.0045662834 0.0011264362 -0.0041037886 0.0043687946 0.0011042401 0.004342739 -0.00315468 -0.0014746784 0.0039552986 -0.003144966 -0.003332121 -0.0006040668 -0.00058770424 -0.0048227236 -0.0041637556 -0.0011578976 0.0008117991 0.000457755 -0.00063104637 0.0046197176 0.0030709805 -0.003817958 0.0032208154 0.001406137 0.0047057606 -0.0036107355 -0.0008324468 -0.0035054665 -0.0012778275 0.0049879174 0.0028724794 -0.0037951684 -0.0025158853 0.004376545 0.0018053885 0.0020383284 0.0020264017 -0.0026398976 0.00089394284
qin 0.004987813 0.0011593697 -0.002628818 0.001332105 0.0028753085 -0.001945929 0.0020231071 -0.004571308 -0.002202543 -0.0029691411 -0.0007914612 -0.0035771704 -0.004887177 -0.0042678476 -0.0045723454 -0.0021238718 -0.0039698794 0.004792824 0.0013461323 0.0030729938 0.0047956957 -6.8402216e-05 0.0010845012 -0.0042186216 -0.0044212393 -0.0049670385 -0.0009549605 0.0035593635 -4.698291e-05 0.0025404396 -0.001188761 -0.002285475 0.0042575896 0.0011794525 -0.0010536985 -0.003217261 0.0044057188 0.0033988594 -0.0036115793 0.00046703988 -0.00022384543 0.002098377 0.0025714862 -0.0033473796 -0.000132649 -0.0019281621 0.004049899 0.004606359 -3.8762766e-05 0.0042932746 0.003438476 -0.0029532714 -0.0005692789 0.002789768 0.002259486 -0.002921082 1.0376368e-05 -0.0047292667 0.0016801062 -0.0028633124 0.0021912255 -0.0021655033 -0.0011971573 -0.00086714985 0.0021888474 -0.0012294463 -0.004390039 -0.0048378753 0.003194635 0.0021368694 0.0011719146 0.00030491062 0.0020961955 0.0014318154 0.0019833404 -0.0031281062 0.00080451445 0.0041229175 0.0021569633 0.0009568974 0.004793413 -0.0011411296 -0.001737446 0.0019799785 -0.0027762132 -0.0035619715 -0.0015214377 0.00041686138 8.587943e-05 -0.0049878047 0.0029070778 -0.0005263812 0.004607384 -0.0042878645 0.00015444508 0.0014372992 -0.0014947337 0.00071507314 -0.003708948 0.00070232386
cotta -0.0048880926 0.0017096614 0.0044063423 0.0021081122 0.0029872428 -0.0029035404 0.0023644036 0.0031962013 -0.002817057 0.0030360557 -0.0049264245 0.002911428 0.003280707 0.0005391125 0.0033980447 0.0014518247 0.002106273 0.0040365914 0.0036241633 -0.0008286994 0.0017177683 -0.004107582 -0.0003406663 -0.00039658873 -0.004006594 -0.0033213198 0.0031081622 0.00038330478 -0.001282589 -0.0021992633 -0.0036230038 -0.0005162556 0.0036424957 -0.0005768215 0.0014988104 -0.00032811356 0.0027183872 0.002241628 -0.0032395264 4.054416e-05 0.0005843014 -0.0049268403 0.00056638534 -0.000629335 -0.0020624762 0.004370203 -0.0001468745 0.0017703518 0.0029943848 0.0034562 -0.00046616583 0.0013431463 -0.0020996793 0.004999756 -0.0019988809 -0.0021581354 0.0032856409 0.0029973802 -0.0011594312 0.00048194296 0.003326247 0.0005597161 -0.0050158408 0.004516339 0.0020115532 0.0037348038 0.00013164285 -0.0016678597 0.00048865343 0.0045356317 0.0045442698 0.0022183107 -0.0040789894 -0.00077191944 -0.0017342251 0.0012446804 -0.0023057607 0.0032716421 -0.0016416918 -0.0028814643 0.002230173 -0.00073542824 0.0042811558 -0.0010446713 0.0010656801 -0.003867641 0.0046823835 -0.0035338586 0.0006749489 -0.0003976773 -0.0015928914 -0.0028157062 -0.0003646455 0.0031906683 -0.0020620564 -0.0016725207 -0.0011312932 0.00028138937 -0.003972214 -0.005082302
major -0.0013412229 0.002621313 0.002409278 0.0019413772 0.0019635477 -0.004259657 -0.0022305318 0.0034800244 -0.0043656603 0.0006943334 -0.0031533646 -0.0037965078 -0.0012685562 -0.0042808917 0.0041037463 0.0024206091 -0.00040917136 -0.0005259857 0.00280969 0.001984336 -0.0011319043 -0.0029127104 0.0011027086 0.0006889382 0.004242655 0.0046854247 0.00074169814 0.0015602047 0.0033186264 0.0032281498 -0.0002922837 0.0016221688 -0.0018044101 0.0010151303 0.0039962023 0.0048598866 -0.0015340156 0.0038652255 -0.0023735694 0.0038929423 -0.0023078436 -0.004894327 -0.00092900946 -0.0032671206 0.0021391106 0.003634508 -0.00257277 0.0050485763 0.002928233 -0.0038875567 0.0025631834 0.0015751491 -0.002885003 -0.0039074584 -0.0006385917 -0.0033022882 -0.004300965 -0.0011373622 0.0008940163 -0.0041258996 -1.9947744e-05 -0.0041785194 -0.0024560206 0.0006245181 -0.00076894736 -0.0028559496 -3.7225593e-05 0.0043836837 0.0031545945 -0.0047387346 -0.0024886045 0.0023149117 0.002415306 -0.004339408 -0.004244023 -0.0023174419 -0.0010167408 -0.003270963 0.00027392688 0.0015439084 -0.003568958 0.00065524207 0.004642391 0.001977346 -0.0035390817 -0.0024476505 -0.00036233605 0.00142906 0.0008673977 0.001512839 0.0010743653 0.00038811305 -0.00013749012 0.0018196726 0.002396052 0.004245317 -0.0045225015 0.003857757 -0.0027655314 0.001346785
clay 0.004079627 -0.0024770363 0.002233146 0.0029694482 0.0018761334 -0.00055442646 0.0013016702 0.0018307988 0.0020425338 0.0008005907 -0.001120796 -0.00049771665 -0.0006807293 -0.0014900289 0.0026603325 0.0049548303 0.0019235482 -0.0010397391 -0.00027109266 0.00013613241 -0.004415696 0.002430577 0.0035588082 -0.0041909753 -0.0009495123 -0.0038013093 -0.0041815275 0.0007339577 -0.001833015 0.0012198666 0.0023670231 0.0028916504 0.001461669 0.0040082973 -0.002316866 0.0026241865 -0.003867426 0.0018731746 0.004222614 -0.0040620943 -0.0026357295 0.0045166663 -0.0030150553 0.002522718 -0.004964626 0.0028637503 -0.0037693123 -0.0019378783 0.00028975285 -0.00432943 -0.0041547553 -0.0003637194 0.0041511725 0.00011775938 0.0006762205 0.0033256414 -0.0034186314 -0.0016130912 -0.0029681323 0.0002454681 0.0018458418 -0.0001359764 -0.0024730288 -0.0034451943 0.0035827812 0.002652683 -0.0033168409 0.0024136354 0.0046230825 -0.0049129464 -0.0045040897 -0.0042997724 -0.003909563 0.00039215345 -0.0022728357 0.003779919 0.0011895098 -0.003426436 0.0039485926 -0.0017590682 0.0035212021 -0.0027335875 -0.0033358855 0.0040617194 0.004197646 -0.0028360656 0.0037768935 -0.00029779907 0.0037627188 0.0015737002 0.0019212749 -0.004240562 -0.0012161387 8.862908e-05 0.0024207751 -0.0042841467 -0.0009194752 0.0032390044 -0.0031769911 -0.003366381
terra 0.00021500072 -0.00097157224 -0.0045916494 0.00084688084 -0.001210097 -0.0048472793 -0.0012449714 -0.0034545332 0.0010128195 0.0028553545 -0.0019712148 -0.002459163 0.0009204962 -0.0015309334 0.0014172914 -0.0019010869 0.004982507 0.0037536046 0.0011631621 0.0033329956 0.002763382 -0.004215541 -0.004629652 -0.0014721046 -0.0038986222 0.0013281207 0.002313462 0.0030378762 -0.004838249 0.00089927844 0.0032191512 0.0029939527 -0.0011056617 -0.0041626897 -0.0022536572 -0.00028120494 0.0039916444 0.0024049913 -0.0004994247 -0.004428467 0.0037146958 -0.0018571744 0.0042833337 -0.0015401485 -0.0025419786 -0.0046515116 -0.0015925099 0.00075845525 -0.0007014972 0.0002916607 0.0033780045 -0.0024026637 0.00034018746 -0.0019608568 0.003347088 0.004244074 0.0022646585 0.0030023982 -0.0025124268 0.0027879614 0.002713706 -0.0026881367 0.0027378805 0.0020289936 -0.0018823824 -0.0032022556 0.0026125775 0.004830584 -0.0012309141 0.0039792447 0.00013148002 0.0042422824 -0.0045277686 -0.0032306563 0.0039215316 0.004938875 -0.0049743494 -0.002878893 -0.0017290598 0.0033827624 0.001757081 -2.1835096e-05 0.004629287 -0.0023680516 0.0034001137 0.0025756713 -0.00033734692 -0.0035740605 0.003142096 0.0033526807 0.00037799892 -0.003058986 -0.0047532488 -0.0017704417 -0.0034198237 -0.0017544995 -0.0036521442 0.0045123617 -0.0033361523 -0.0012711411
chang -0.0038550668 -0.0017937663 -1.2570883e-05 -0.00322515 0.0034570976 -0.00283441 -0.0016683374 0.0010383446 0.003372198 -0.0005150731 -0.00014565283 0.00042433362 -0.0018085516 0.0033942885 0.00018733193 0.004284518 0.0035089864 -0.0022144355 -0.0012126532 0.0047981427 0.0027721839 -7.855799e-05 0.0039823223 0.004688476 -0.0049017696 -0.001213549 0.00073222304 0.0012198542 0.0036495337 -0.004597746 -0.0022576412 0.003422256 -0.0012759265 -0.002733548 -0.00029202213 0.0024811905 0.0010350074 -0.0013338312 -0.0027439564 -0.00019553376 0.0028107322 -0.004636125 0.0036336933 -0.002292101 -0.00030726197 0.001448716 -0.0016738935 -0.0033042803 0.0040935636 0.001690361 0.0027760542 0.0010917849 0.0046381867 -0.0014030943 0.0047328295 -0.00057293737 0.0030690182 0.0014574211 -0.005000651 0.00017974792 -0.0029435444 -0.0012435974 0.002373735 -0.00068487204 0.00023174487 -0.004326273 0.0007356597 0.0027879376 0.0023904247 0.004700073 0.00021307675 0.00021097795 0.0012339308 -0.00031301065 -0.0038366723 -0.002510599 -0.002098278 0.0030702557 0.003487627 0.004793406 0.0018370358 -0.00087206124 0.0040436853 -0.0006077295 0.003921418 0.0018158592 -0.00439213 -0.0004942919 -0.0003560999 -0.0030258102 0.004487797 -0.0048339814 0.002076025 0.0015492449 0.00012539582 -0.0035608362 0.0011517957 -0.0013563979 0.003400304 -0.0016107424
including -0.000118723605 -0.0045624315 -0.004563935 0.004398634 0.0039012323 0.001984232 -0.0035507327 0.0048495377 0.0011698314 -0.00055431726 0.001257667 0.0012181576 -0.0034977947 0.0008097521 0.0031050984 0.00096860464 -0.001013753 -0.0029593066 -0.0035275216 -0.0026730145 -0.0016550852 0.0046529113 -0.0013692902 -0.003581958 -0.0014550651 0.0036667816 0.004356977 -0.0005446626 0.0030953633 -0.0010909417 -0.0039285757 0.0031262836 -0.0001678978 0.0042591994 0.004867008 0.0031027428 -0.003526884 0.0044767037 0.0035457166 0.0011955742 -0.0043386514 -0.005090399 -0.0013349799 -0.0018893785 0.0018037803 -0.001439689 0.004339511 -0.00316877 -0.0040721176 -0.0025335988 -0.00056196953 0.005129516 0.003813103 -0.0014297157 -0.004337169 -0.0039778696 -0.0012641941 0.0030394176 -0.0032561328 0.001989379 -0.0010681851 -0.0006653048 0.0043454883 0.0002532197 0.0044003967 -0.00086887577 0.0010496952 -0.00027050954 -0.0019171083 0.0016511374 0.0035652062 -0.0017658954 0.0008575754 0.0048393854 -4.399389e-05 -0.0034835145 0.0014176206 -0.0027788936 0.0033657898 0.0046520834 0.00073445495 -0.001274079 -0.0020929356 0.0015608986 -7.9479054e-05 -0.0029110527 0.00067869853 0.002071513 -0.0015211847 -0.004115185 0.002670529 -0.004969348 0.00017394632 0.004293019 -0.0043607717 0.0013885221 -0.004907097 0.0002806597 -0.0014717772 -0.004257551
ferrell 0.0027444093 -0.003273053 0.00070118177 0.0017652919 -0.0011741914 0.003913826 0.0024756892 0.0047782357 0.00053888053 0.0012208858 -0.00346192 0.004285817 -0.00064614863 -0.0012225606 0.0012962224 -0.004996356 0.0015155087 0.003517143 -0.0016403004 0.0010860263 0.00017860433 0.0022311474 0.0038698118 -0.0047021243 0.0016774964 0.0048574684 -0.0009984779 -0.0018776857 -0.0043297973 -0.0020557663 0.0011967614 -0.005016541 0.00477072 -0.0036953425 -0.0029077423 -0.0033523503 0.0027478551 -0.002144134 -0.00037578886 -0.0029631995 -0.0034685768 0.0031573512 -0.0013933661 -0.003965362 -0.0016901756 0.0025603531 0.0010636629 0.0036330782 -0.0035503244 0.0001536583 -0.0012180755 -0.00014986146 0.0013710932 -0.00016985736 -0.0026379179 -0.00019831455 0.00031022998 -0.0035340323 0.0014780537 -0.0016872291 0.0005520955 -0.0032516564 -0.002814629 -0.0010463973 0.0044997004 0.004894034 0.004378866 0.0033073334 0.0030373181 0.00391545 0.0037322566 -0.0015379911 0.005001926 -0.0038824002 -0.004689967 -0.0005209775 -0.0015637387 0.0048808674 0.00023462818 0.004073771 0.004575955 -0.0038473555 -0.0017315322 0.0023760234 5.542103e-05 0.004250778 0.00070313853 -0.0020343536 -0.00018549094 0.0035440496 0.0026921546 -0.0043096463 0.0014183326 -0.0025755716 0.005014072 -0.0025010556 -0.00030026396 2.2843067e-05 0.0041856267 0.0004489368
visit -0.0013421823 0.0022273185 -0.002974564 0.0007976562 -0.0036551438 -0.0038333202 0.0007314868 0.0024297233 -0.0041091177 0.00017079954 0.0029823687 0.00053968193 0.0030881641 -0.0012271557 0.00041810528 0.0037821224 -0.0037256405 -0.00066647603 0.0036282165 0.0014276282 -7.390735e-05 0.003554192 -0.0048890337 -0.00087047525 0.0013363755 0.0048331493 0.0046191853 -0.0019720264 -0.0007561262 0.0023804065 -0.003050037 -0.0017681782 -0.0010337782 0.0020054397 -0.0042763166 -0.0006346036 0.0031449094 0.00450259 -0.0025205924 0.0029274372 0.0045706085 -0.004080362 0.0036013788 0.0017888034 0.003825111 -0.003961087 -0.003555424 0.00065583474 -0.00033445074 0.003641913 0.0007566493 0.00028835182 0.0046332125 -0.00046142805 0.0005798924 -0.0014560666 0.00403641 -0.004327536 -0.002668835 -0.0007020768 0.0020790235 0.0028938346 0.0041091926 0.00035960783 0.0033574803 0.0014942344 0.002493938 0.004357151 -0.004758008 -0.001981592 -0.0007589271 0.0037734655 0.0044526868 -0.00049297314 -0.0013715548 -0.0031437096 0.003917597 -0.0035203826 -0.00466024 0.0008671128 0.0027088716 -0.004879521 0.0035045126 0.0018516734 0.00057972956 0.0021107655 -0.0027776354 -0.0017094983 -0.0006180469 0.00069896993 0.00423317 -0.0036775633 0.0033843673 -0.0018652631 0.0013257705 -0.003911249 0.00419042 -0.0018940988 0.0028958665 0.0024402877
chengdu -0.0045580165 0.0030443815 0.0016647495 0.0015902306 -0.0037694967 -0.0005946953 0.004686467 -0.0038745492 -0.003363865 0.0019473224 -0.004282518 0.0034644979 -0.005047955 0.0026664902 0.0019537495 -0.0047562504 -0.002468894 0.0010983599 0.0035929636 0.0006256024 -0.0011697268 -0.00021800974 0.002330613 -0.002723063 -0.0042630406 -0.0010467507 -0.0006137314 0.0014549365 0.0021201395 -0.0005634446 -0.0026231406 0.00458707 -0.00036279435 -0.0026641644 -0.001433664 -0.0032926574 0.002598591 0.0036185454 -0.0050356304 -0.004861142 0.0045968127 0.001958702 -0.004416196 -0.00048982643 -0.004545198 0.0012627108 -0.0009979799 0.004407724 -0.000815047 0.0020999345 0.004800663 -0.003114157 0.0020816163 0.002593159 -0.004683029 -0.0013578904 -0.0036848995 -0.003372728 0.00059546664 0.0017778474 0.0038115522 -0.0017009791 -0.0028316258 -0.0011874819 -0.00039070906 0.004859206 -0.002404742 -0.0042600012 0.00025560753 -0.0013774221 -0.0015963033 -0.004825234 0.0034266666 0.0049171294 -0.0010759702 -0.0016361815 0.0014273692 -0.004837755 0.0015346303 0.00054809044 -0.0036325208 -0.0026555455 -0.0016855515 -0.00023022729 0.0023768381 -0.0037233809 -0.00031952956 0.0017043796 0.0011957864 0.0017034682 0.0019097795 0.00063239294 0.0022115367 0.0021671262 0.0014763247 2.1605561e-05 0.0039426726 -0.004073566 0.00042393326 0.0007076779
technology 0.0015977158 5.332838e-05 0.0038395158 -0.0025135628 -0.0032738673 -0.0016645796 0.00201959 -0.0049636303 0.0033054831 0.0021523102 -0.001754306 -0.0034407675 -0.0028611494 -7.3466465e-05 -0.0033629609 -0.003807305 -0.00261238 -0.004775604 -0.0020604644 -0.0026191885 -0.0030332832 -0.0014637734 0.0039101685 -0.0021910144 0.0023432556 0.0009761215 -0.0007750103 -0.00076013454 -0.00015630673 0.004867009 0.0028311727 -0.00080597954 0.0035748144 0.0015003423 -0.00011806199 0.00288086 -0.0035030225 -0.0018936952 -0.0030386348 0.0044050002 -0.00501178 -0.0040861163 0.0004454693 0.00078485865 0.0045830086 -0.0045792675 -0.0025180366 -0.00024175772 0.0040544397 0.0024867186 0.0028801318 -0.0006812793 0.0022728639 -0.004890051 0.00024211411 -0.0032848993 -0.0005833103 -0.0009290479 0.0034689603 0.0046889563 -0.0028153039 0.004630714 -0.002211597 0.0004084238 -0.0012287626 0.0017688863 0.00015100722 0.0032956451 -0.00013682338 0.0006840941 -0.0015598936 0.0030109673 -0.003341844 -0.0035485849 0.0032253563 0.004080769 0.0038838214 -0.0018716 0.0031922106 -0.0007463727 0.0036346538 0.0027301738 -0.0017639122 -0.0017845455 0.0035537549 -0.0032794876 0.0013713508 0.0018276956 0.0011083462 -0.0034121808 0.0013222988 -0.0011855714 -0.0030661332 0.0033782262 0.0016666102 0.0026211708 0.0027772575 0.0036780864 -0.0012578578 -0.0042492747
tour 0.004223388 0.0011396233 -0.001904435 0.0005225783 -0.0007908179 -0.0029501093 -4.0736413e-05 0.0016270383 0.002203684 0.0019216063 -0.0025895394 -0.00015827341 0.004585472 0.003796556 0.0033111977 -0.0047685257 -0.00016471888 -0.004320191 0.0035783914 0.0013643141 -0.00025190675 -0.0033125058 -0.0025702699 0.0046164542 -0.002616123 -0.004216125 0.0032453055 -0.0020349645 -0.0010296053 0.0023020846 0.0041128555 -0.0039238804 -0.0019109726 -0.0027326366 0.0031727464 0.004773606 -0.0027155057 -0.0010077503 0.0002188275 0.0034995924 0.0035338742 -0.004826112 -0.0027402418 0.004864075 0.0018914037 -0.0008201647 -0.0025852232 0.0012043904 0.003396478 0.001071361 -0.004709592 0.0035802473 -0.0013438411 0.0036391765 0.002350694 -0.0013487791 0.0019892678 0.0025160555 0.0047594863 0.0047389884 0.0017177862 -0.00051103334 -0.0012928718 0.0035554022 0.0049438104 0.0015520847 -0.0022286673 -0.0016088543 -0.0012818486 0.0007694674 -0.0023243402 -0.0006230383 -0.0014920296 -0.0013176637 0.0003441381 3.0085917e-05 -0.0011980814 -0.0031349873 0.00044092964 0.0025972824 0.0040857084 0.0016178137 -0.00035525672 -0.0045516184 0.003015181 -0.0047987946 0.0046373797 0.0036450555 -0.0027939265 -0.0048670233 0.0037228493 0.0020015643 0.00040436318 -0.0005974298 0.0035170056 0.0034980695 0.0048543653 0.0043824003 -0.004630183 0.0010901063
medical 0.0010329544 -0.0019281853 0.0015918867 0.0017272759 0.0013121432 5.3039643e-05 -0.0030326939 -0.003858696 0.0044541094 -0.00028046532 0.0034822891 0.0049616643 -0.003451894 0.004629899 -0.0029359143 0.002759443 0.003967962 0.0013333972 -0.00053106697 0.0015008969 -0.0031573568 0.00020457961 0.0036134205 0.0016602321 0.00073679973 0.0031735157 0.0028115439 -0.003278381 -0.0013645615 0.0010253758 0.00491214 0.0031829383 0.0012432527 -0.0017670875 -0.00026258934 -0.004395533 -0.0036233352 -0.004622927 0.003062189 0.002558991 0.004239153 -0.0013730837 0.0034910913 -0.0028767362 -0.0017292956 -0.0029356345 0.002477707 0.0004536242 -0.0015911685 0.0028281056 0.0028157474 -0.0039713234 0.0029693982 -0.0026704355 0.0019906503 0.0030681598 -0.000538229 0.0016753618 -0.0030664313 -0.0020586078 -9.853783e-05 -0.0019119526 -6.4585874e-05 -0.0024953124 -0.0024658663 0.002821167 0.0015808484 0.0034141669 0.0044809813 0.0022600573 0.0036489975 -0.0025120904 0.002065471 0.0022174236 -0.0035604606 -0.0020259793 -0.0024936716 0.0012282449 0.0023921225 0.0017691535 -0.003935367 -0.0025655834 0.00015192351 -0.0039394754 -0.0023275765 -0.00017055657 0.0025161305 0.0030361665 0.0041402183 -0.0007944483 0.0013527407 0.0012104698 -0.0016751221 0.0030282747 0.0015361013 -0.0038240184 -0.0030284622 0.00013975424 0.002791001 -0.0042052525
damage 0.0034156141 -0.0007819952 0.00039189574 -0.0026299923 -0.0005450656 0.0017607951 0.0044568656 7.7267185e-05 -0.004840232 -0.0013508899 -0.005019336 0.003864532 -0.0029215561 -0.0040191035 -0.0041918876 0.0015634894 -0.004888789 -0.0029214656 -0.004306078 -0.0045726663 -0.004643918 0.0032126352 -0.0046524345 0.00036658332 0.004168601 0.0026762583 -0.003973022 -0.00359304 0.0036228793 -0.0029470953 -0.0043780687 -0.0009944508 -0.004815281 0.001400919 0.0049351603 0.0049957787 0.002893962 -0.0003307772 -0.0031136354 -0.0035080428 -0.001628943 -0.004920847 -0.00040327464 -0.004253815 0.0019193772 -0.005006104 0.00030674867 -0.0033218695 0.004625432 0.003977685 -0.0042345105 -0.0045580096 0.004075959 0.0027497218 0.0009719361 0.0042371904 -0.0031833907 0.0009793921 0.0021117479 0.0047917734 -0.0035801355 -0.0037209743 -0.004641796 0.004725826 0.0033373174 0.00093466346 -0.0026489708 -0.004185682 0.0020372323 0.00089615793 0.0012422107 -0.0023256615 0.0029280533 -0.0030177385 -0.0025016018 -0.0042621116 0.0038887414 -0.0020785637 -0.0033758827 -0.002968233 -0.0022749864 0.0045352574 -0.0031723133 0.0014116075 -0.0011866892 0.0021662987 0.0049569206 -0.0032026202 0.0047068805 0.00066903746 0.0015220939 -0.00385961 0.0030953537 -0.0006255702 -0.00045552637 0.00023686576 0.0024587014 0.00093474926 0.0014986749 0.0024856047
military 0.0005411107 -0.0018110248 0.0027638036 -0.0013085507 0.0030467205 -0.0020406442 -0.0029493608 -0.0011345859 0.0015949875 0.0043039727 0.0029817806 0.00087896455 -0.002082831 0.002650768 0.00039292814 0.0031071717 0.0011805486 -0.0038215283 0.0017433958 -3.8014652e-05 -0.0047118757 0.004342245 -0.00019296232 -0.0047162636 -0.00064772466 -0.0025643257 0.0042057196 -0.0010834252 0.0037323267 -0.0031890257 0.0025293005 -0.00138106 0.0025611264 0.00044816828 -0.001301032 0.0048517645 -0.0029079185 0.0034179753 0.00443043 -0.0043865675 -0.0018798135 -0.00019382089 0.0013094388 -0.0044365125 0.004481646 0.00052810897 -0.0030076713 0.0009481819 0.00387893 0.00018066783 -0.0021593955 -0.0005148448 0.0029681644 -0.0008213544 -0.0030375586 -0.003370537 0.001273759 0.0045699496 0.00355587 -0.0018324615 -0.0012854497 0.0028185481 -0.0014595084 0.00029382724 -0.0012159754 0.0013830756 0.0007153591 -0.0034369407 0.002135961 0.0020125445 0.0024066013 -0.0008938766 0.0009553959 -0.0004957297 0.0040494488 0.0015302385 0.00016250403 0.004569557 0.000628664 0.0003271035 -0.0024719387 0.00097452966 -0.0044753435 0.0009766547 -0.00060901744 -0.002139854 -0.002546104 0.004665784 -0.00024152745 0.004095188 -5.1961368e-05 0.004034048 0.0042037233 -0.002386117 0.0023268987 -0.0038814524 0.002046917 0.002055226 0.004802645 -0.0010317119
visited -0.00022305024 0.0027892482 0.0046201767 0.0030902312 0.003575131 0.0013011746 -0.0030651588 0.00449342 0.0005413344 0.00066561863 -0.0010174043 -0.00497277 -0.0031754868 7.5725316e-06 0.0025296467 0.001291612 -0.0010005007 -0.0025145803 -0.004490318 -0.005035609 0.0044364347 0.0004122809 -0.0036273745 0.004816015 0.0032093548 0.0009149895 0.00042596372 -0.0013264066 0.0007195653 -0.0033155961 0.0016863565 -0.0012875344 0.0034210302 -0.0044728895 0.0033229333 0.0037867639 -0.0014619256 0.0020963019 -0.00074332516 0.002234994 -0.0011867391 -0.0027293048 -0.0015329467 -0.00230447 0.00016269102 0.0034675135 -0.0037002948 -0.0012777436 -0.0040531186 0.002258702 -7.309145e-05 -0.004567067 0.0030949924 -0.0028221917 0.0028640344 0.0046021533 -0.0011285233 0.0017952992 -0.00036385463 -0.0029378368 0.0048467047 0.0032740575 0.003927257 0.0031043193 0.0033864551 -0.0022258428 -0.00062786887 0.0044317855 0.0023134202 0.00021889783 -0.0037585269 -0.0001113919 -0.0030374015 0.004268033 0.0044182795 -0.0019750095 0.0048314785 0.001998853 0.0011453938 0.0038285155 0.0049733534 -0.0014963158 -0.0038024692 -0.002512069 -1.9105983e-05 0.00177176 -0.001557094 -0.0040794294 0.004544781 -0.0021895866 0.0007597582 0.0029307061 -0.002679196 -0.0044991234 -0.0026299325 0.003512172 0.00054256077 0.0050313165 0.0031266971 0.0020790494
cardiology 0.0036133488 0.0017155223 -0.0002600183 0.0041862857 -0.002770918 0.0015487096 0.004647435 0.0026110422 0.004493139 -0.00353697 -0.0015182622 -0.0037730355 -0.0011240019 -0.0034805862 0.004797849 0.00058694166 -0.0005465099 0.0040482916 0.0027054115 -0.004646926 0.004193026 -0.0013903803 0.0034405137 0.000115499264 -0.0019805748 0.00019224847 -0.0047131386 0.004936703 -0.0009588023 0.00071973674 0.0016503963 -0.002218916 -0.0007191469 -0.004143061 0.0033315471 0.0020331512 -0.004489556 0.0007796543 -0.003693798 0.003709056 -0.0016624398 1.3097789e-05 0.00067957793 6.8675115e-05 -0.00059855497 0.0004123206 -0.004920407 -0.0013106947 -0.00030038785 -0.0012514661 -0.0006098802 0.0016493181 -0.001824566 -0.004109798 0.0002989475 -0.0032341685 0.0030206032 -0.0020221283 -0.0024453206 -0.003804084 -0.0031017626 0.0018835233 0.0043695606 0.0022361297 0.0041908966 0.0008958125 0.0017661451 0.0012293272 -0.003818572 -0.0025467859 -0.0041026315 -0.00056879147 0.0016273238 0.00030303723 0.0028847386 -0.0036704445 -0.0001762624 -0.003159211 0.0015113316 -0.0011439043 0.0033138336 -0.0002330413 -0.00049427646 -0.0005054585 -0.00036254007 -0.00027061472 9.529392e-05 -0.0011056493 -0.0015341814 -0.0033532495 0.0015692116 -0.0028277014 0.000795714 -0.00078633183 -0.0005557679 -0.0021045941 0.002348234 -0.002209693 -0.002337321 -0.0038419904
cities 0.0043334863 0.0004976535 0.0012909333 -0.004397534 -0.00015163556 0.003514103 0.0042459415 -0.004777242 0.0045052418 7.983333e-05 0.00025907328 0.00045078227 0.0044970205 0.0020465965 0.000654556 -0.000988276 0.0011737635 -0.003135565 -0.001765911 0.0044196756 -0.000118033604 0.0025227645 0.0028418403 0.00067978253 -0.0021257952 -0.0037153675 -0.004922267 0.0049546775 0.0023623398 0.0018701949 -0.0029909685 0.00067268184 -0.002031804 6.7033e-05 0.0006042599 -0.00015357614 -0.003504876 0.004830187 -0.003575505 -0.00078706845 -0.004308501 0.0017179864 -0.0034006827 0.0030685426 0.0039454876 -0.00018273949 -0.0046248944 -0.00050604064 -0.0005582933 -0.0010862097 -0.0049014855 -0.0014001969 0.004654114 -0.0039181444 0.004738622 -0.0046030045 0.0039138 0.0014910257 -0.0040252577 -0.003009505 -0.0045947344 -0.0012636527 -0.0020565572 -0.0030175943 0.0021648575 -6.416412e-05 -0.0006345464 0.0003247959 0.0031273705 0.0009927483 0.004852515 0.0034885944 0.004497083 -0.0012634759 0.0013509529 0.00035379897 -0.0031001235 -0.0010156065 -0.00067794335 0.0011788781 0.0017821812 0.0044767912 -0.0018897977 0.0034163874 -0.0037791627 0.003959572 -0.0017096676 -0.00084016554 -0.0032815014 -0.003438759 0.004163471 0.0014463842 0.004438356 0.0039437693 0.0050661117 0.0005896413 -0.0016051196 0.0017039325 0.0014528984 -0.00039592411
weeks 0.003829236 -0.0042154407 -0.0011698294 -0.0025994638 0.0009103079 -0.001038721 0.0010217957 0.0016712985 -0.0020560622 0.0038166877 0.00027863914 -0.003533965 -0.00065857254 -0.004231652 -0.0021006423 -0.0023591518 0.0011602619 -0.0031528936 0.00051196385 0.004345071 -0.0026350608 -0.0035724037 -0.004722153 0.0023794763 -0.00431142 0.0024248918 -0.0044877487 -0.00046679043 -0.0022087044 0.0048989914 0.0025365981 -0.0007779327 0.001926388 -0.0030453415 0.00043296843 -0.00074156217 0.00071624 -0.0037715863 -0.00386481 0.0030014438 -0.0040149526 -0.0035871335 -0.0009912526 0.0023752388 0.0005590901 0.004604132 0.0015709198 0.0016161945 -0.0020325382 0.0015225724 0.0033279983 0.0012579818 0.00056925067 -0.0018039104 -8.6820444e-05 0.0029317029 0.0003360802 0.0020978535 -0.0026984722 0.0020399967 0.0018578838 0.0038613065 0.00012670315 0.0026633567 0.002935544 -0.0046693236 -0.0034897467 0.0014176067 0.00067747635 -0.0005757406 0.002108041 -0.0046868687 -0.0027793306 0.0030230994 -0.0031962288 0.0036757893 0.0020398928 -0.0012449359 0.004027283 0.0024249293 0.0038604503 -0.0026448183 -0.0024871528 0.0046342304 -0.0023447445 0.0005630253 -0.004926411 0.0028315648 0.0019013173 0.0048123524 -0.0042533115 -0.0003751974 0.0004402786 0.00029141447 -0.0022192416 0.0045649167 0.002741994 0.0037031875 0.0014845 0.0037401267
beautiful -0.001431856 0.0033902861 -0.00032513062 0.0016865643 -0.0014731426 -0.0015452463 -0.00422257 -0.0036713781 0.0017291969 -0.0030684073 0.00066802383 -0.00063067337 0.0030447796 -0.0018912966 -0.0018906951 -0.00039878287 -0.00025242544 0.0008009497 0.0018421541 0.0033532865 -0.0029758296 -0.0042108544 0.0023641933 -1.4627391e-05 -0.0028967198 -0.0019447869 0.004669224 0.0027498517 0.00054289924 0.0020707902 0.0010977495 0.0037875555 -0.0003823259 -0.0021830893 0.004278531 -0.004719957 -0.0025699728 0.0019466842 0.0038903342 -0.0030311658 -0.00502002 -0.00043877022 0.0010067826 0.000351868 0.0029730615 -0.00010702087 -0.0029145612 0.0048995954 -0.0036251661 -0.00021814248 -0.0025313068 0.00431665 -0.0029469128 -0.0010956652 -0.00014319074 0.0026316354 -0.0049352255 -0.0014012746 0.00069601723 0.002158355 0.004225266 -0.005033718 -0.00010275614 -0.0023529103 -0.00494828 -0.002195655 0.0050511626 0.0037108348 -0.0026496039 0.0017591439 -0.0010331139 -0.0031578452 0.0035487628 -0.0010509064 -0.00037268974 0.0022341437 0.0039539295 0.0023037742 0.0036301177 0.00437929 -0.003465178 -0.0005945578 -4.669684e-05 -0.00049914094 -0.0026991041 -0.004063117 -0.0043210373 0.0032654675 0.00401353 -0.0014358889 0.0022290607 -0.0017866455 0.0047423644 0.00071796094 0.0028515197 0.001132741 0.0044488814 -0.0012366349 0.0014085547 0.0030134025
shihuangdi 0.0021169104 -0.0013919837 0.0020219134 0.0030825841 -0.00026322756 -0.0001956335 -0.003776288 -0.004586298 0.00347675 -0.0029620586 0.00032264192 0.004778521 -0.0013115738 -0.0015000958 -0.0047799926 0.00120656 -0.002363402 -0.0009629128 -0.0014064381 -0.0021174022 -0.00018731723 -0.004537728 0.0012141888 0.0046321303 0.00048755668 0.0015771902 0.000106523345 -0.0028574832 0.0014012222 -0.0018621348 0.0027601293 0.0019052785 -0.0023061638 0.003001821 -0.00486402 0.0023644662 -0.0005063951 0.0045587816 0.0032021992 0.00016070718 0.0022410231 6.0268838e-05 -0.0022030568 0.0035918471 -0.00077349547 -0.0039641387 0.0015841613 0.0037112571 -0.002840967 0.0019569276 -0.00059942016 0.0012862647 -0.0040445467 -0.0049745752 0.0022596477 0.0034630578 0.0036402305 -0.0041403393 -0.0009310427 -0.0020403406 -0.001713033 0.00019305015 -0.00057869 -0.0045027984 0.003572832 -0.0011935489 0.005049359 -0.00063404243 0.0050629606 -0.0015468409 -0.0036348002 -0.0015734712 -0.0021163619 -0.004685389 0.0047714505 -0.001662138 -0.0030191618 3.0585732e-05 0.004533798 -0.000658536 -7.1152295e-05 0.0022627194 0.0004080176 -8.1829305e-05 -0.0018755221 0.0027822363 -0.0031443068 0.0042770654 -0.00060109026 -0.003921765 -2.8725299e-06 0.004504083 -0.0031660465 -0.0035718651 0.0029312721 -0.00011816749 -0.004931906 -0.00071411225 -0.00088484515 0.0007438501
workers -0.00049206003 0.0029291047 -0.0009834333 -0.0017893371 -0.002363083 0.004405024 0.0017923182 -0.0036070305 -0.003282206 0.0042137294 -0.0022390368 -0.0036803507 -0.004380636 -0.0021398128 -0.003779468 0.003412608 0.00029620284 0.002891911 0.004497872 -0.004812164 0.0027546417 -0.0039298697 -0.0022299031 0.0045763142 -0.0015017893 -0.0034266587 0.000480192 -0.00401607 0.0036335706 -0.003138962 -0.00047380975 0.00066451187 0.00043543967 0.0004896013 -0.0036339564 0.0021982212 0.004120734 -0.0018878918 -0.0005432293 -0.0049141687 -0.0036476774 -0.0023860664 0.0020080137 0.004973566 0.001484417 -0.0042125895 0.002067319 0.0025904805 0.00030817557 -0.0031149418 0.00404858 0.0007046734 0.0016975665 -0.0044022184 0.0024962572 -3.842835e-05 -0.004942238 0.003377909 0.0011254483 -0.0012424331 -0.0016461132 -0.0045912573 -0.0045303334 0.0045848796 -0.00062755536 -0.00418327 -0.0016291187 -0.00067128026 -0.0003101419 0.002727563 -0.00095397135 -0.003474783 0.0035712207 -0.004682482 0.0015290242 0.00094567187 -0.0044053677 -0.0023783199 0.0031929107 0.0024500831 -0.0032282376 -0.0040637013 0.003077695 -0.0009332921 0.003442273 -0.0006686159 -0.002621518 0.0036231119 0.0013635732 0.0023343135 -0.0033466327 -0.002152632 0.004401501 -0.0019913514 0.0029157414 0.00023421703 -0.0049592266 0.003620756 -0.002491601 -0.004350424
photo -0.001997688 0.0037947767 -0.0042444747 -0.00020593227 0.00034051746 -0.0039031007 -0.0012474402 -0.003630548 -0.00053341605 -0.0009372387 0.0005245073 0.0020770722 0.0041033803 0.0024384628 -0.0011824114 0.001746167 -0.0024538925 0.0005530738 0.0030407936 0.0039763185 -0.0029581555 0.0016388473 0.004200621 0.0011083167 0.0040863347 -0.0012529362 -0.00039524608 0.00172096 -0.00042806112 -0.0029333725 -0.002826385 0.004669912 0.0034590277 -0.0034941079 0.0021704843 0.004967275 -0.0028361608 -0.0030099761 -0.002879031 0.0020413778 -5.870243e-05 0.0036307585 -0.0046595046 -0.0037176504 0.003123187 0.0046048937 -0.0021241645 -0.0016910145 0.0006001732 6.669979e-05 0.004957316 0.0026647742 0.004433103 0.0031924874 -0.0006099164 -0.003833341 0.0011562207 -0.0049455618 3.6295936e-05 0.004086511 -0.0032910528 -0.002652621 -0.0011285634 0.0024016164 0.0013635061 0.0025232427 0.00044257025 -0.0021492196 0.005004474 0.0028182731 0.0014855069 0.004767672 0.004709161 0.0022905609 -0.0032139628 -0.0027907307 -0.0024522597 0.0016805937 -0.0025856935 0.0008257844 0.0045224293 -0.002486072 0.0039710337 0.0044910554 0.00020162616 0.0022110548 0.0024262154 -0.00059391995 0.0026768593 -0.002181365 -0.0015066627 -0.0027602762 0.0037909173 0.0003729723 -0.0005734601 -0.0003105377 -0.00304953 -0.0019970944 -0.004287898 -0.0045455913
ancient 0.0031455054 -0.0026308529 0.0028998943 0.0028469136 0.0021455097 -0.004520956 -0.0024997664 0.0028054616 0.0006018979 0.00055026414 -0.0034889297 -0.002528383 0.0043821046 -0.004351743 0.0030624545 -0.0018331651 0.0011911987 -0.00039197956 -0.0019990345 -0.002153022 0.0034154279 -0.0025085676 0.0017524958 -0.0032546131 0.00394214 -0.001383616 -0.0015432967 0.00011307432 -0.0033093793 -0.0032364165 -0.004581686 -0.0048596542 0.003415881 -0.0011807005 0.0030706867 -0.00078558805 0.0025120736 -0.0015006756 0.0014861426 0.003836895 -0.0014719832 -6.511285e-05 -0.0026614491 -0.0039513665 0.0031253744 -0.0040057492 -0.0049188733 0.0009062236 -0.0035714388 0.003962833 -0.004797063 -7.4033e-05 0.004345478 0.000777724 0.0043389434 0.0034982606 0.0012022423 -0.0012056865 -0.002285218 -0.0025248465 -0.004405761 -0.0039951205 0.0046616094 -0.0048039434 0.0010780803 0.0016901178 -0.00076332485 0.003022272 0.0022938845 -0.0002223516 -0.0048417407 -0.0007803697 -0.0029189799 -0.0016025361 -0.0027394418 0.0043674754 -0.00041513646 0.0021600039 0.0030037533 -0.0045598196 -0.0011983246 0.0039691594 -0.0014999221 0.0041212817 0.0046797725 0.004760161 -0.0029284528 -0.0023887374 0.004822751 -0.00061559427 0.00045056528 -0.004565169 -0.0011791481 -0.0039542126 0.003875352 0.0039078724 0.0017903505 0.0016309964 -0.0001043841 0.0005640768
time 0.004097498 0.00016897466 -9.0634916e-05 -0.0027688362 -0.0047100764 0.0041722823 -0.0005582379 -0.0036258644 -0.0039183884 0.0038293386 -0.0046646544 0.0031701354 0.0018156802 -0.0006803367 -0.004380004 -0.0015615365 0.003670288 -0.004190739 -0.0028873289 -0.00078874006 -0.0026955877 0.002883876 0.003338516 -0.0039143516 0.0010778025 0.0039797886 -0.0026045842 0.00372313 -0.0013413278 0.0010610684 -0.00030138512 -0.0010621977 0.0004980831 -0.00017758936 -0.003281944 0.0002653515 0.0028854115 0.0036778776 -0.004836511 -0.0046976684 0.004920672 0.0041318964 0.004354771 0.0017731243 0.0042706197 -0.0023327256 0.000844414 0.002405484 0.002362877 -0.00080633303 0.0029819915 0.0015769457 0.0028646947 0.00308603 0.0048260735 0.0010031827 0.0047192234 -0.0038590194 -0.0018270485 0.002256852 0.0017879595 -0.0048997425 0.0024911023 0.0013182673 -0.00095334917 -0.0029435162 -0.0045334953 0.002208017 -0.0047775 0.0044368 -0.00017159081 -0.002998338 -0.004332443 -0.004799126 0.0001376569 -0.00035043355 -0.0047655543 -0.0036903175 -0.0016233069 -0.0010775551 0.0035288043 -0.0029956594 -0.00097312185 -0.00082539325 -0.0047901818 0.0027879146 0.0046283444 -0.00068816246 0.0023349847 0.0014521419 -0.0043863826 0.0007027008 -0.0034112514 0.0025185198 0.002121766 -0.002397338 0.0043596514 -0.0041550365 -0.0010120351 0.0017797733
train 0.0012781052 0.004447373 -0.0019581723 0.0028166089 0.0045650806 -0.0011041015 -0.00210803 0.0021891599 0.0020541553 -0.0023312743 -0.0011287756 0.0019537094 -0.0009488366 -0.004655923 0.0019134363 0.004669037 -0.0009334306 0.0029661332 0.003057304 0.00035654518 0.0018935468 0.0030806358 -0.0029570637 0.000862593 -0.0009833713 -0.00049170275 -0.0033954403 0.0043581957 0.0012826474 0.0028371688 0.00029930336 0.0022248437 0.0025096356 -0.0004821379 0.0013155201 0.0026719775 0.0018156338 0.0019330103 -0.0026338184 -0.0042710565 -0.0033226428 -0.0047400547 -0.0046819192 0.001993278 -0.0028130133 -0.002333288 0.00031244723 0.002550886 -0.0020567914 0.0016932423 0.002497964 0.0020704132 0.002460155 -0.003671752 0.0011200361 0.0023469548 -0.004828171 -0.0022673667 0.0020162337 -0.0035703033 0.00041480816 8.608372e-05 -0.0011812889 0.0042516245 -3.8867165e-05 -0.00073370826 -0.0008304163 0.004984894 1.5159074e-05 0.00013408437 -0.00027341984 -0.0042095785 0.00011790829 -0.0037058447 -0.0017970996 0.0012137928 -0.0004252044 0.001997799 0.0010649624 -0.0017023167 0.0019424303 0.0015584393 0.003565815 -0.0028018653 -0.0008918786 -0.0046701217 0.00042354557 0.0008256312 0.0013406454 0.004149796 0.0015441308 -0.0022394962 -0.0050492757 -0.0045568235 0.002220775 -0.00013466073 0.0041285437 0.0040825843 0.00086257065 -1.5076766e-05
farmers 0.0021680575 0.0036891138 0.0005751411 -0.0013351691 -0.003863848 -0.0038234238 -0.0026837024 -0.0038607398 -4.5565448e-05 -0.0017598927 -0.004551113 -0.004586697 -0.004453598 0.0038546824 0.00026422265 0.0010295055 0.0011030744 -0.0023418437 0.00024476973 -0.004119346 -0.0031533418 -0.0027160135 0.0030231471 -0.004181378 0.0030950627 -0.0026045248 0.0019741678 -0.004504752 -0.003937397 -0.0001250958 0.002086192 -0.0043150885 -0.0006118565 0.0027281882 0.0025277282 -3.7409543e-05 0.0010983582 -0.0015231569 -0.004481622 -0.004366692 -0.0039380104 0.000988867 -0.0013389166 0.00037068376 0.0037195366 0.0034952236 -0.0013181298 0.00019848948 0.004244639 0.0025329236 -0.001740164 -0.00441411 -0.0011056683 0.0046353233 -0.0012496891 -0.002473495 -0.0021624241 -0.0043891296 0.0023324997 -0.003023065 0.0040515135 -0.0015515623 -0.0034370187 -0.004666671 -0.0024758598 -0.002455388 0.0030964995 -0.0046514818 0.0046627573 -0.0028079576 0.00072433404 -0.0023146388 -0.0015930055 -0.0037390876 0.002176602 0.0024968828 -0.0010231582 0.0021235442 -0.000785007 -0.0037348622 -0.0031752812 -0.0029966286 0.001540395 -0.0016445473 0.004143808 0.0035708304 -0.003294524 0.0028638016 0.0038967058 0.0021214169 0.0029836984 0.0021238297 -0.0002997592 0.0005594471 -0.003305339 -0.004759841 -0.0021239615 0.002236964 0.004870423 -0.0027195055
oct -0.0019040753 0.00373043 -0.0028890176 0.003855218 -0.001772443 0.00074138277 -0.0010569178 0.004191174 -0.0009558477 0.004264057 0.0045583146 0.0047741584 0.00077394705 0.0032243477 -0.0016109357 0.0031189998 -0.0014453753 -0.0004081052 -0.0003684041 -0.0045641568 0.0041639297 0.0014752585 -0.0036781803 0.0008424722 -0.00096818915 0.0011981506 0.002211022 -0.0030409957 0.002116552 0.0038702805 0.0016098359 0.0020899528 -0.0034280112 -0.0024905794 0.0020667033 -0.004818299 0.004608577 -0.0029503359 -0.0026718725 0.0012931025 0.002347765 0.0022290922 -0.004715564 -0.004978945 0.00053071347 0.00086380047 -0.0033264707 -0.002789051 -0.004154935 -0.0021294532 -0.0015933807 -0.00024019045 0.0040085013 -0.0020136228 0.0011265769 -0.0021771549 -0.0010831454 0.0021460985 0.0020309559 -0.0028617545 0.00016104105 -0.0048919227 -0.00049723306 -0.00025365336 -0.004918527 0.00046246563 0.0010625712 0.0018688436 0.0048029157 0.004190253 0.0035429362 0.0030903886 0.0035098207 0.0041796337 -0.0039093453 0.004385653 0.002256156 0.004691984 -0.002928324 -0.0037634773 -0.0014843643 1.8802002e-05 -4.8807724e-05 0.002622085 -0.0048066773 0.0025890868 0.0035332972 0.0014805852 -0.0033666275 0.00051961705 0.0030340052 -0.002792347 -0.0006308033 -0.0023406653 -0.0015385562 -1.8887491e-05 -0.0026670943 0.0038000466 0.0008495807 -0.0017311893
engineering -0.002792201 0.0026449657 0.0029144585 0.0039598537 0.0012250949 -0.0006975867 0.004260797 -0.0016441066 -4.461764e-05 0.0026241643 0.0023624534 -0.0025676254 -0.0010783856 -0.0033400229 0.0034807927 0.0016540104 0.004641292 -0.0013749326 -0.0018440193 -0.0005169007 0.004277576 -7.674671e-05 -0.0035091334 -0.0010105785 -0.0020181555 -0.0014686887 -0.0011413159 0.0016484433 0.004213336 -0.0030147391 0.003545389 -0.0041451287 -0.000437233 -0.0042635016 0.00053266936 0.004295902 -0.004089557 -0.0019274452 -0.0024797397 0.004881015 0.0031892383 -0.0007212824 0.0016369373 -0.0049546463 -0.0029766303 -0.0035372612 0.0016135254 -0.0027534345 -0.0017827754 -0.001848099 -0.0020077254 -0.0003466156 -0.0044721947 -0.0033664124 -0.0016795596 0.00042074214 -0.0026827138 0.0032957594 0.0043593203 0.0034725207 -0.0020651917 -0.0033051032 0.0014343784 0.003259104 0.0041679638 0.0039355424 0.0017508287 -0.00095612695 0.0012766668 -0.0028809838 0.0046910453 0.00087109953 0.0045069577 -0.004222803 -0.0028755434 0.004539303 -0.0022205315 0.0049159494 0.0030610408 0.0001466073 0.0020190524 0.001108663 -0.0028252623 -0.0012172706 0.0035392793 -0.0028004115 0.0014807349 -0.0001571418 -0.00070254196 -0.00017540579 -0.0014940959 -0.0044269264 0.002349283 -0.0007493483 0.0046292352 0.0015422027 0.0021965597 -0.0008830146 0.002296256 0.0004362722
mausoleum -0.0025274379 0.0048987186 -0.004683488 0.0011806817 -0.0042948825 -0.0047265254 -0.0010939164 -0.0043462953 0.003411424 0.00013990447 0.00041380574 -0.0011143183 0.0035890597 0.0007448445 0.002210002 -0.004478701 -0.00031012736 -0.0047472953 -0.00018474186 0.003243949 0.0013614063 0.001355726 0.0031191078 -0.0016072185 -0.0006306996 0.0020658972 0.0035280476 0.00010322617 -0.0038216878 -0.004625127 -0.0031241674 0.0008991696 0.0041182316 -0.00012984013 -0.0044956305 -0.0027898278 0.003187295 -0.003549632 0.004297533 -0.004077673 0.002926767 -0.0012769863 -0.0026113463 0.0017870864 0.004938983 -0.0016522433 0.003974344 -0.00221557 0.00072688237 -0.0013055846 0.0035822557 -0.002770944 0.001329629 0.0036739055 0.003011314 -0.0043952484 -0.0029319052 0.0008513259 -0.0010987468 0.0035835642 -0.0035144687 -0.0044971807 -0.002704444 -0.0037721286 -0.0040480727 -0.0023075396 0.0014101631 0.0010405156 0.002436423 -0.005061402 -0.001375186 -0.0008104885 0.00095769076 0.00024430914 0.00463935 -0.0046230415 -0.0018804986 -0.0013670278 -0.0035774903 -0.0044985143 0.0038336343 0.0013075393 -0.00041097208 0.0033468313 0.0047041834 -0.0012293616 -0.0035622856 0.004798162 0.0043098675 7.5106977e-06 0.0010957144 0.0034358173 0.0046935417 0.0017349417 0.0032565969 -0.0026704988 -0.0019805299 0.0011273444 -0.004810115 -0.0019647258
fourth 0.0017147636 0.0033125745 0.0020754226 -0.0033780232 0.00017269701 -0.0001519913 -0.0048184823 -0.0007239128 -0.0012608838 -0.0007187029 -0.00394915 0.0041798796 0.00087533967 -0.0006016275 0.0044071493 0.0010765151 -0.0042397035 -0.0035956833 0.0011683627 -0.0022302007 0.0037896596 0.0037553522 -0.0011034324 -0.0021650472 0.0029516015 -6.2231644e-05 0.004405003 0.0037782697 0.004035935 -0.0019782842 0.003841126 -0.0026284973 -0.004730028 0.0024236334 -0.0015956374 0.0005921544 -0.00279902 0.0015536676 0.00093214144 0.0013484594 -0.0041901437 -0.00078750495 -0.0043443176 -0.0028552162 0.0011411244 0.0037257855 -0.00035789277 0.0033618428 0.004054437 0.00034747474 0.0028561659 0.0028251086 -0.0035274313 -0.001991612 -0.0008948837 -0.0010397828 0.001014899 -0.0015877445 0.0030766933 0.0008608855 -0.0039935666 -0.002036128 -0.0047239587 0.0010409771 0.0017361894 -0.0037807245 0.003736072 0.0026510977 -0.0043137507 0.0020483485 0.0015007646 1.3960538e-05 0.0029348785 -0.0007115762 0.0039220573 -0.004979794 0.0022400431 0.0048130616 -0.0035903107 -0.0008581988 0.002396784 -0.003237901 -0.00300239 0.004531093 0.0010066989 0.002785066 -0.0012076312 0.0026257606 0.0034178756 0.00156347 0.00094230584 -0.0024659256 -0.00068136485 -0.0012248511 -0.0046484466 -0.0018549007 0.0020918625 0.0018399672 -0.00032359897 -0.0012604882
east -0.0029889932 -0.0035658763 -0.0024297247 -0.0029912125 -0.0034986 -0.00063068 0.004081479 -0.0010174299 0.0037275883 -0.0037128325 0.0011601783 0.004536803 -0.0048215305 -0.00459645 0.003022528 -0.0025179775 -0.0021995266 -0.0036819798 0.0018061675 0.0016882936 -0.002933368 -0.00489919 0.0016025787 -0.0008810138 -0.0009507029 -0.0034588717 0.0024772966 0.0017344847 -0.004219811 -0.004011276 -7.383891e-05 0.0026207957 0.0018125186 0.003115179 -0.003460944 0.00034550086 0.0001862681 0.0034156498 0.0004714091 -0.0024491546 -0.0031289633 0.0024125492 -0.0010729118 -0.0020475076 0.005025571 -0.0036568542 0.0019037591 -0.0026638003 -0.00073309353 0.0026074108 -0.0017886347 0.0021831526 -0.004741589 0.0015973046 -0.0013488634 0.0017898309 -0.004717344 -0.0001526327 -0.0016241004 -0.0011269527 -0.004646326 0.00067392696 -0.0033180115 -0.0023723033 -0.0034142581 0.0038093803 0.00073572044 -0.004328889 -0.0023451634 -0.004584499 0.0027639596 0.0024940923 -0.0015534466 0.003038777 0.0013145641 0.0028722484 0.0024808994 0.0024758053 -0.0022386964 0.0022535173 -0.0015312146 0.0031999247 -0.0018996159 0.0016438267 -0.004654478 -0.0039903815 -0.0017461842 -0.0027860247 0.0031667533 0.001102015 0.0016911435 0.004292524 0.0015926363 -0.00018236284 0.002184433 -0.0020404647 -0.0012657887 -0.0028015599 0.0018001718 0.004755887
institute 0.003558062 0.004747422 -0.004659203 0.0037140457 0.0026377295 -0.002303165 0.0028202727 -0.0037201429 -0.0029197277 0.001481463 0.00479055 0.0013753674 -0.0046081524 -0.0004949338 -1.6414255e-05 -0.0042658555 -0.00046518457 -0.0007287229 0.0018462318 -0.0026963262 -0.0018172829 -0.0009191719 0.0008704517 -0.0022696585 0.00076233543 0.0019746087 -0.003971903 0.0035155911 0.000970752 0.0024367175 -0.0034547185 -0.004631076 -0.004723957 -0.002218118 0.00041663548 0.0035218548 -0.0022904836 -0.0028604262 -0.0038846529 0.00018776597 0.0045723626 -0.0019319481 -0.00029959454 -0.002985921 0.0021900353 0.0022796844 0.0026025472 0.00015118574 -0.0013735169 0.0030207648 -0.0028303366 0.00035141932 -0.0033067814 0.004285272 -0.004235974 -0.00089649716 -0.004232669 0.0025266185 7.409498e-05 -0.0031747578 0.0008276642 -0.0030230149 0.0012124968 0.00064919895 -0.0017337388 -0.0013171382 0.0013617327 -0.0044631334 0.0029986913 -0.0027361922 0.0032448862 -0.004542084 0.004741962 -0.0024204745 -0.00051377324 0.001426796 -0.0040020864 -0.0006526448 0.0049516065 0.0048602126 0.003625513 -0.0026886365 0.0013935965 -0.0030437747 -0.0008947072 -0.0023840263 0.0020258434 0.0043512457 0.0035660688 0.0021526115 -0.002770052 -0.0001521946 -0.004494675 -0.0021613538 5.83364e-06 0.0017794963 0.003301747 0.0026562298 -0.004846251 -0.003829966
affiliated 0.0010002819 -0.0048924396 0.00092676334 0.0031068004 -0.00038179583 -0.0017312448 0.0030495492 -0.0028241423 -0.004243671 -0.0044060736 0.00044443965 0.0044831373 -0.00081100594 0.0048287218 -0.0021431851 -0.0029985681 0.00049159216 0.003719845 -5.2849544e-05 -0.0049566617 -0.0029755714 0.0003777935 0.004513453 -7.2445066e-05 -0.0034725338 0.004170452 -0.003072776 -0.00461416 0.0010810713 -0.004127981 0.002117893 0.003385965 -0.001075923 0.002337572 0.0029739854 0.0011417599 -0.00157418 0.0039503244 0.0042967293 -0.002617224 0.003828103 -0.0021331517 -0.003189258 0.004850497 3.670615e-05 0.0026154402 -0.0032681616 0.00079110276 -0.0025175256 0.0005292614 0.0023781164 0.0039379224 -0.0011695456 0.0045744334 0.002840525 -0.0039212126 0.00081748486 0.0005069179 0.003778838 -0.0015966044 -0.0018863716 9.601778e-06 0.002076093 0.0048739826 0.0034764886 -0.0024046144 -0.0017389089 0.0038894583 0.004967537 -0.0047340305 -0.00280627 -0.004961702 -0.003933563 -0.0007739753 -0.001288335 0.0034985698 -0.0007034372 0.005097383 0.00020593368 -0.0039863978 0.002445882 -0.0034844526 0.0012716484 0.0014934154 0.003068037 -0.0031131704 0.0039132903 -0.004062636 -0.00048389265 -0.0033774124 0.0005434952 0.0024923724 0.00072552066 -0.0009874043 0.0051326053 0.004620871 0.002345883 0.0018488467 0.0026420078 -0.0026469154
south -0.000825577 0.0034001432 -0.0030640133 -0.0009053425 -0.0027612792 -0.0010833655 -0.000654919 -0.0019026416 0.00042144198 0.0015472432 -0.0007672197 -0.0039793714 0.0028025573 -0.0032673748 0.004395069 -0.0014715854 0.0019969377 0.0034465464 0.0027884934 -0.00019977646 0.001446352 -0.002764528 -0.00042167003 -0.00046324125 -0.0016799396 -0.00039823033 -0.00414503 -0.0021730247 -0.0008354761 -0.0013929176 0.0035858941 -0.001090206 -0.0021334102 0.00069331256 0.0024462312 -0.0034151499 0.0036395239 -0.0035240103 -0.00014551502 0.004418961 -0.00040843204 0.004394938 0.0014723213 -0.00099927 -0.0042915386 -0.0036591354 -0.004185431 0.001987854 -0.0046605906 -0.004023321 -0.0041654585 0.00019276461 -0.004598219 0.0037599318 0.003919803 -0.004526113 -0.0008757093 0.0019880307 -0.0047975876 -0.00091801456 -0.0016710936 0.001933532 0.0013662723 0.0026687076 0.0046137366 0.0034316955 0.0022303672 0.004808354 -0.0045904866 -0.00093543396 0.00018091996 0.0042480514 -0.0027982267 -0.0024542327 0.0022535033 -0.0018803377 -0.0042771134 0.00441704 -0.0028203488 -0.0028937515 0.005035901 -0.003993213 0.00026265098 -0.0013298511 -0.0049635954 -0.0002498257 -0.0016690891 -0.0018970317 -0.0038984513 -0.0025435686 -0.0016738476 0.004315044 -0.0040190653 0.0025082917 0.0047659175 0.0042982767 0.00031541346 -0.0023516102 0.0039810273 -0.00044849233
sichuan -0.004707164 0.0009733064 0.0036792755 -0.004680918 0.004643489 -0.0037457023 0.0035926416 -0.00035124968 9.475235e-05 -0.0018850174 0.0042336322 0.005016312 -0.0042656045 -0.001551942 -0.0017744006 -0.0048706913 -0.002755208 -0.004436756 0.0033673348 0.0032502247 -0.00029302549 -1.8968823e-05 0.0024310637 0.0045680096 -0.005064185 -0.003011695 0.0012779599 -0.002117291 0.0011296914 0.0025977776 -0.0030822793 0.0031440663 0.004947395 0.0006198627 -0.0031937324 0.0046318094 -0.003618128 -0.004213931 -0.0008095955 0.0021613725 -0.0035790878 -0.003416974 0.00202504 0.00065842347 -0.0037910084 -0.0012406014 0.0003447802 0.0031465988 -0.0008399794 0.004194568 0.0021230485 -0.000371214 0.0012356911 -0.0014626085 0.0031608422 0.0023278794 0.0028495821 0.0021106608 0.0020650763 0.004253614 0.004943874 0.002880631 0.0019801385 0.0024381732 -0.0030611737 0.003567278 0.004765965 0.004857872 -0.0048367535 -0.0034242454 -0.0013058692 -0.0028835663 0.0012567835 0.004761786 0.004578028 0.00089255336 0.0047439504 0.0040704357 -0.0018709559 -0.0043199887 0.0033477345 -0.0014268367 -0.0005745988 -0.0029461866 -0.00026286076 -0.0008355188 0.004421662 0.004581675 -0.001656241 -0.0024277195 0.0032215219 0.00097172277 -0.004886667 -0.0046944874 0.0010392024 0.0011929453 -0.004104834 0.0009185788 -0.0006243428 -0.003161027
strong 0.0029284689 -0.0019685978 -0.00047891116 0.0047658384 -0.0032740554 -0.0024079615 0.0030240684 -0.0012763379 0.0046713324 0.004893947 0.004553772 0.0014597574 0.003948702 0.0039383066 0.0032097076 0.0020446996 -0.001681627 0.003752541 0.0049598226 -0.00079398777 -0.0014895822 0.0047445116 -0.002115427 0.0023094094 -0.0033240535 -0.0045058653 -0.0036489742 0.0022628892 0.00041276467 0.0017860602 -0.0032084852 0.00011785798 -0.0043980377 -0.004826854 0.0021243924 0.00032522084 -0.0034907463 0.004813269 -0.004082926 0.0032882222 -0.0007208034 0.0028147488 -0.003915734 -0.004008774 -0.001011304 0.0010948317 -0.00045539258 0.0007484401 0.0005624874 -0.003960721 0.0046115723 -0.0033143666 0.00414756 0.000932695 0.0046399334 0.0025363166 0.0022156362 0.004690259 -0.0034560894 0.0047949133 0.0012386648 -0.0017090818 -0.0022643688 -0.0010686063 -0.0045262063 -0.004405704 0.00013727004 -0.002712717 0.00013092447 -0.0011316552 -0.00012798785 -0.0017332025 0.0039527807 -0.0033582686 -0.0025525107 0.0040137684 0.0026069365 -0.004240293 0.001682333 -0.002896148 -0.0013968124 -0.004428512 -0.0024527058 -0.0014069058 0.0041060057 -0.0015437942 -0.0030789059 0.0027094323 0.003316244 -0.0021111884 0.0026436832 0.00011297263 -0.0028451125 0.0013606965 -0.0027105506 0.002924015 0.0009768977 -0.0047615794 -0.002693951 -0.0037790982
include 0.0008474571 -0.0010831122 -0.003090073 0.003284776 0.0020733897 0.0037607488 -0.0030471804 0.0041284305 -0.00010384262 -0.0032598432 -0.004876391 -0.0009070428 0.0002953031 -0.003309215 0.00056960725 0.0036692298 -0.0035888252 -0.0033631404 0.0018030589 0.0011629005 -0.0009919888 0.00096913934 0.0011834538 -0.001407093 -0.0015582796 -0.0015290478 0.00480399 0.0015363847 -0.003803776 -0.0009240944 0.0048175543 0.0036158417 0.0031631836 -0.0033445898 0.002730069 0.00079515285 0.0008229502 -0.0028768843 -0.0020175318 0.0046487995 0.004320214 -0.004814312 -0.0044637257 -0.0025521822 -4.678065e-05 -0.0030912335 0.004289335 -0.0034497436 0.00044518057 0.0050548934 -0.00070771854 0.00082193525 -0.0031271363 -0.0018319587 0.004631923 -0.0011635951 0.0020248014 -0.0017406961 0.0015769005 -0.0018345166 -0.004162503 -0.004164484 0.0009015874 -0.0005375308 0.0011251306 -0.0014042564 -0.00019441305 -0.00016596641 -0.002796073 0.0024889652 -0.0033758564 0.0017674732 -0.0047822273 8.8136825e-05 0.0007043478 0.0041638534 -0.0036924623 -0.0037841124 -0.00014233931 0.0012205876 0.0002509049 0.0045405594 0.0032885757 0.0023545187 -0.0009629214 0.0046657 0.0022114464 -0.0035782936 0.0009487948 0.0013973868 -0.0024205993 0.0039572986 -0.00042207653 0.0011969045 -0.0023427845 -0.003280993 -0.0017045095 0.0029960005 -0.0005915155 -0.0031669026
famous 0.0020774093 -0.00023343608 -0.00021060927 0.002143916 -0.004706779 0.0035141918 0.005054505 -0.0033818071 0.0023073663 -0.004427133 -0.0020872275 -0.0012244519 -0.0027747983 0.00045350334 -0.004110103 -0.0049138824 -0.0037370147 -0.0027487383 -0.004194337 0.002126044 -0.00079433917 0.0005093771 0.00082009396 0.00090665946 -0.0035983901 -0.002875855 0.004150709 -0.002935915 0.0047561536 -0.003233162 0.0015344702 0.00012260962 0.0035242562 0.0037001786 0.00045143743 -0.002373861 -0.0037493738 0.0024441422 -0.00066384714 -0.0034016408 4.3545806e-05 -0.0049809585 -0.0014542704 0.0046852413 -0.0030155885 -0.0024002753 -0.0049831984 0.0030760074 -0.00039067294 0.000759803 0.0017479272 0.004915035 -0.0018086776 -0.00084380596 0.0020599933 0.002127637 0.00087473355 -0.003631712 -0.0047285343 0.0026740772 0.00425278 0.0020280282 0.0046694432 -0.00078156433 0.0012995728 -0.0019163671 0.004976294 0.0019758374 0.0046174247 0.0015718768 0.002724596 -0.002814934 -0.0043065115 0.0048365616 0.00036426776 -0.0033930675 -0.0047950586 -0.0013055027 -0.0047796727 -0.004589601 0.0028552471 0.00038354716 0.004918976 0.0017741163 0.0013522252 0.00081034296 -0.004234559 0.0041315937 0.0024672071 -0.0029027308 -0.004574528 -0.001202101 -0.0043281685 0.000109625296 0.0031744323 -0.0047635236 0.0046191835 -0.0001109067 -0.0041762395 0.001873416
created -0.0041758213 0.003320049 -0.0040543624 0.0012635349 -0.00034596268 0.00011241954 0.0033208877 0.0020425494 0.0040090065 0.0045416867 0.0034772363 0.0038113222 -0.0036642526 -0.0006584482 -0.0019496862 -0.0036582637 -0.004210472 3.0442154e-05 0.004305298 -0.0013776249 0.0010205157 -0.0017853761 -0.0016466558 0.004186754 -0.0030788549 0.0018350239 -0.0049230745 0.0014823214 0.0016299397 -0.0046648723 0.0045962874 0.00018853856 -0.0036688647 -0.0003293161 -0.0010433922 0.00043995876 -0.0008195851 0.0032401585 0.0034385724 -0.0012228015 -0.0035828932 0.0025756746 -0.00063327583 0.0008315654 -0.0032920472 0.002359012 -0.004173205 0.0038373698 -0.003327015 0.0026727167 -0.0012910935 0.0032787342 0.00036938855 -0.000866431 0.0038135457 0.004173624 0.0032710494 -0.0035032623 -0.0026588042 -0.00038279017 4.607488e-05 0.0031615954 -0.0028146743 0.0035904634 0.003370588 -0.0044016596 -0.0031159343 -0.002811784 0.0035422337 -0.00011427718 -0.00047581038 0.0021264695 -0.004804152 -0.0034846603 -0.0035373932 -0.0017437397 -0.002306279 -0.0013445681 -0.0045612664 0.0011884312 0.0032823728 -0.0031295489 0.00089221005 0.0006661606 0.0022576558 -0.0023386814 -0.00094844046 0.00477925 -0.0010835932 0.00027605958 -0.001250188 -0.0044933595 -0.0007722972 0.001473341 0.00036232208 -0.00023891788 0.003359413 -0.001969397 -0.0014261298 -0.0029562023
1974 -0.00017397726 -0.004651996 -0.0027406171 -0.001853078 0.0043437667 0.004984111 0.00046826733 -0.0007928122 -0.0045312652 -0.0009270607 -0.0015683346 0.0033966156 -0.0018711556 0.0021337026 0.00496185 -0.001669986 0.0021638735 0.0039962023 0.002225617 -0.0015462362 0.0044514122 -0.003547576 0.0045461 -0.0004322991 0.0018653413 0.0049191173 0.001648498 -0.00089352246 -0.0011574735 4.1786538e-05 0.0020672039 0.0010547073 -0.00375258 0.003768817 0.00073380786 0.0040306435 0.0036117393 0.0007250148 -0.0002986266 0.0007905519 0.0047103628 0.0014777269 0.0046470976 0.00062793173 -0.0020580217 -0.00035103373 0.0036090983 0.001970601 0.0020190289 0.004943615 -0.0044319103 0.0030527036 0.0037424567 -0.002773221 -0.0015606578 0.0014356385 -0.0038895963 0.0016959779 -0.0019632648 0.00066750444 -0.0016329937 -0.004905813 0.002926286 0.0035838275 0.0017743427 0.0030052012 0.0014339744 -0.0007039853 -0.00058009016 -0.0020699 -0.001987539 0.0011013111 -0.0016513339 0.004165233 -0.002987918 -0.0013266926 0.004169398 -0.0022357586 0.0016491853 0.001747266 -0.0027820123 0.00161511 0.0027468004 0.0046307263 -8.714557e-05 -0.00021629759 0.00063065294 0.0022983938 -0.0046324525 -0.0033093407 0.0014660456 0.003381761 0.0028600965 0.0006042419 -0.0023859958 -0.00286557 0.00036446247 0.0038695752 0.0028707816 -0.0047773873
owned -0.0038181674 -0.0044953846 -0.0002123048 0.0047906474 0.0030335414 0.0005791391 -0.0011476781 -0.004352455 0.0020384814 -0.004668629 0.0025466324 0.0037443484 -0.002194365 -0.0023652106 -0.003551315 0.0048601944 -0.0005762488 -0.000490962 0.0025399905 -0.0013371257 0.00029289417 0.0024854543 0.0045035533 -0.004276275 0.00031638873 0.0018316389 0.0020765527 0.0024732254 -0.0007138115 0.0012279378 -0.0044051846 0.0006573094 -0.0007361176 0.0017683941 -0.00092294044 -0.00015681991 0.0027752814 -0.0010455648 -0.0024824846 0.00379028 0.0036953774 0.00048814964 0.004599133 -0.001799794 -0.0007469043 0.0014762785 -0.005024702 -0.00054445403 -0.004084031 -0.0033146665 -0.00323727 0.00064636633 0.0040639895 -0.0044114655 -0.004176387 0.0021703546 0.0045835194 0.0001363739 0.0002907547 0.0026440942 -0.0020271563 0.003174095 -0.00093458046 -0.0011349292 0.0035108784 -0.001886197 -0.0018152591 0.0026840756 0.0028594853 -0.00076875393 -0.0033593273 0.0018670532 0.0011129703 -0.0005383384 0.0023384825 -0.0036808315 0.0048769903 -0.0019414282 -0.0033176595 -0.003761173 -0.0027794638 -0.0018315061 0.002491954 0.0010100012 0.0003359504 0.0029524486 0.001185329 -0.0039280676 -0.00067970954 0.002094862 -0.00034598622 0.00057429576 0.0006352785 -0.0033749295 0.001842776 0.004761653 -0.0043832324 0.0011270397 0.00063939363 0.002454677
leshan 0.0035582276 0.0035321491 0.0038428304 0.0028536068 -0.0026703828 0.0010368067 -0.0035651054 -0.003063143 -0.0043881843 0.0045703286 0.0010377113 -0.004590468 -0.0023777226 -0.0028613224 -0.0035886252 0.0033929416 -0.00019571793 0.0015657527 -0.002578607 0.0016743295 -0.0040525086 -0.0046940683 0.004469772 0.0028202215 0.0049036723 0.0038795383 -0.004455833 0.0012345958 0.0014820336 0.0035127462 -0.0049107126 -0.004748172 0.0045469487 -0.0046479744 -0.00091843854 -0.0021190064 0.0007361035 -0.0012963495 0.0004901387 0.0044781384 0.0037891243 0.0045450833 -0.0035738589 -0.002578775 -0.0038517057 0.0038797834 0.0010363192 0.0004874591 0.002485511 0.002566794 0.0010223902 -0.0011942397 0.0036598626 -0.0042392304 -0.0012840212 0.0041037714 -0.0014925002 0.00053556496 -0.00054521154 0.0023740146 0.00053119956 0.0010684223 -0.004806535 -0.004052239 0.0019641449 -0.003441236 -0.0031632546 0.004533363 0.0008975671 -0.0045314436 -0.0018527868 -0.0005769143 0.0041362625 0.00013965735 -0.001820895 0.0015248205 -0.0037033323 0.001286913 -0.0046510976 -0.0026893553 -0.0013032949 0.00010064211 -0.0026833739 0.0012343609 0.0021367804 -0.002663567 -0.004949857 0.0017907382 0.0005860284 -0.004628311 0.00024147973 -0.0034998362 -0.00016755023 0.0043815128 0.0026628894 0.0046119904 0.0016927515 -0.00317409 -0.002403123 -0.0025273494
11 -0.0022437358 -0.004841659 -0.0016916419 0.0034415657 0.0009761261 -0.0035795737 0.0007993779 -0.0033260314 0.0036046442 -0.0019035339 -0.0039105844 0.002586152 0.0030446511 -0.0035610371 -0.003677073 0.0013688803 0.0025247203 -0.0017891406 -0.00043798322 -0.0017891082 0.0048850193 0.0010796487 0.0041645854 0.0038555756 -0.0049566384 0.003808956 0.00463119 -0.003067265 0.0011676074 -0.0015245863 -0.0038613537 0.0021233568 0.0018245546 0.0038507504 -0.0037694317 -0.0016217954 0.0015937431 -0.0041742316 0.0010602137 0.0010350528 -0.003998803 -0.0032849556 -0.0019002492 0.001800693 -0.0029226285 0.0005779208 -0.0031901456 0.0034781676 0.0010878585 -0.0007432487 -0.00022568365 0.00013312485 -0.0035474251 -0.003311055 0.0031967552 -0.005034717 0.00095839 0.0032889354 -0.0024207958 0.0015488707 -0.0039956933 -0.0010688795 -0.0023744463 -0.0039912034 0.0020758833 -0.0012703774 0.0033676669 0.0022903336 -0.0028319033 -0.004078283 0.0020347952 0.0047713774 0.0042592846 0.0018935214 -0.0037946752 0.00078130217 -0.0029378217 0.0043396284 0.001274659 -0.00058221025 0.0026043658 -0.0017477607 0.00130152 -0.00014928746 -0.001004401 0.0044719004 -0.0036186844 0.00022745246 -0.0032584888 0.0049049594 0.0010490683 -0.0012230404 -0.0033481729 -0.0042857057 -0.0046266112 -0.0020760328 -0.0006349696 0.00026946326 0.0036202976 0.0028750668
710048 -3.433604e-05 0.0037499578 -0.0022592116 0.003212996 -0.0042627235 0.0037694548 -0.0005624598 -0.00069054763 9.994783e-05 -0.004662979 -0.0040236986 -0.0020673703 0.0025031327 -0.0035342327 0.002493212 -0.00081043533 0.002279785 -0.0005270286 0.000113667214 0.004258677 -0.004847939 0.00086459797 -0.0016052843 -0.0045133126 -0.0028896856 0.0002509177 0.00024012498 -0.004857452 -0.0025686338 0.0019570854 -0.0027130805 -0.0035861952 0.0005952473 -0.0046240417 -0.001878836 -0.0041599553 0.0029090387 0.003899772 0.00060989393 0.00402515 0.0038347603 0.0031673564 -0.0026657216 -0.0027898941 0.003086491 -0.0013601055 -0.0030640054 0.0041507683 -0.0001182937 -0.0013045332 -0.00037685546 0.004138639 0.0034174991 -0.002132073 0.0033170574 0.0007436831 -0.004102967 0.00474023 0.000981973 0.004551354 0.0014150833 0.0026288086 0.0032117453 -0.00195231 -0.0034605083 0.0040319283 -0.004983125 0.00093208964 0.004593178 -0.0045340094 -0.0010934792 0.003169732 -0.000371627 0.0013874666 -0.0032609422 0.001870942 -0.003313215 -0.0030117957 0.0022010892 -0.0016179748 -0.0039629876 -0.00029078894 -0.004784866 -0.0025506557 0.0020713343 0.004984595 0.0036853722 -0.004095076 0.00024137634 0.0010913735 0.002153064 -0.0016235017 0.0043468056 0.0013770859 0.0041348394 -0.0018386075 0.0035016157 -0.00066541275 0.0012558432 -0.0010049425
life -0.0010168678 -0.0012647596 0.0019581078 4.4412474e-05 0.0033685013 0.0036418005 -0.003575653 -0.002081508 0.0036309066 -0.0027340369 -0.0006056265 0.002671927 -0.0039009901 0.0027544925 -0.0011354887 0.0011065559 0.0017711767 -0.0036339888 -0.00054522743 -0.0015470986 -0.0020907822 -0.0044640335 0.0024685585 0.0010427233 -0.0019479572 -0.0006990671 0.0042088646 0.0043215654 -0.0005153709 8.328605e-05 -0.00024014914 0.0027799413 5.8583328e-06 0.0005534437 -0.0008885376 0.002525709 -0.00020732442 -0.00047008967 -0.00074289594 -0.0038309959 0.0019812547 -0.002686103 -0.0032140366 -0.0038581747 -0.0035316565 -0.0030012464 -0.000631747 0.000852972 0.0021523347 -0.0024709136 -0.0048168194 -0.0029984214 -0.0030642275 -0.0013179748 -0.0019893914 0.0025069965 -0.0015808387 0.00053190545 0.0020439553 -7.9614096e-05 -0.0017949926 0.004077881 -0.0016188888 0.0030381577 0.0043789586 0.003625305 -0.0041445578 0.0025815987 0.0021404454 0.003417537 0.00063812174 0.001472 -0.0039010695 -0.0041581173 0.003505413 0.0044384003 -0.0049601966 0.004064605 -0.0013672865 -0.0022180825 -0.004696179 0.00068507186 -0.0036507433 0.004240266 -0.0046740887 -0.0010716454 -0.0047203684 -0.0005200614 0.0020366798 -0.0038039696 0.0030435629 0.001140252 -0.0045981784 0.004626763 0.0015141827 0.000774909 -0.0009808687 0.0049901945 -0.0021220504 -0.0027070187
true -0.0040777833 -8.4387626e-05 0.0039273244 0.0004746999 -0.0035052113 -0.0021627643 0.002826994 0.004211134 0.004462361 0.002744784 0.0009909119 -0.002738532 0.00015374966 -0.0013517721 0.0026950713 7.6657125e-05 0.00064957986 -0.00079002866 0.0040497025 -0.0020814452 0.004463406 -0.00063916645 -0.002116695 0.003627374 -0.0035847775 0.0041556302 0.0042017205 0.0030064331 -0.00046085514 0.0038233341 -0.0036535854 0.0023433003 -0.0030629227 -0.00057023123 -0.00022101265 0.0015325735 -0.0027073163 -0.004693915 -0.00038796602 -0.00018266824 -0.004848261 0.0018655226 0.00498852 -0.00319632 -0.002269835 -9.65498e-05 -0.004697371 0.0009309824 0.0020368737 -0.0029900102 -0.0024725874 0.0026483666 -0.004633139 -0.0033527832 -0.002300721 0.0044836598 0.0045053423 0.004520015 -0.0030822593 -0.0039625587 -0.003217308 0.00097545795 0.0016355296 0.0044905795 0.0034772952 -0.0048710424 0.0032677262 0.0033991055 -0.0026449978 -0.0046767197 -0.0037086455 0.0028132277 -0.0018502147 0.004244547 -0.0021026123 -0.0037785987 -0.0009531233 -0.004154572 0.0040475824 0.0013944195 -0.003752716 -0.00022214263 -0.0031334376 -5.9433598e-05 -0.0044542546 -0.004591787 -0.0018594196 0.003677706 -0.0019564328 0.0032772305 -0.0028554564 -2.9739427e-05 0.002338265 -0.00014535853 -0.0046971953 -0.0009988903 -0.0020944816 -0.0015645919 0.0005540534 -0.0011243416
based 0.004089759 0.0022728944 -0.0028198627 -0.0005958023 0.00267001 0.000920919 0.005091912 0.0028742366 0.004288648 -0.0031465571 0.0032813319 0.0029575592 -0.004537455 0.0027277449 0.0010036703 -0.0035238157 -0.0041280175 -0.0013281379 -0.0013992338 -0.0010640301 -0.0016488861 -0.00016557788 -0.0013171851 0.0032294246 0.0029015422 -0.0022730995 0.0007954142 -0.0026376524 -0.0022656324 4.7523976e-05 -0.0028633839 0.0022880028 0.0048349486 0.0011060729 0.0018227808 -0.0032334563 -0.0007257967 0.0048987097 -0.0008473043 0.0018863481 0.004834036 0.004343283 0.0031193686 -0.004904288 -0.00439321 0.0039760163 0.0046201046 0.002117846 0.00234698 0.0048602247 0.003597942 0.0037490604 0.0013571089 -0.0035795558 -0.0009325387 -0.00353108 0.0032243915 -0.0015699916 -0.0014171146 -0.0024756917 0.0033406648 -0.003351741 0.0022511678 0.0006256075 -0.004445851 0.004877356 -0.00018950064 0.0010760624 0.000102931386 0.00018395901 -0.004530815 0.0005564039 0.0027306543 0.003450481 -0.0046840156 0.0036220578 0.0004413703 0.0030001304 0.0041657826 0.005019313 -0.0017506365 -0.004243312 -0.0037146315 0.004631773 0.0030240086 -0.0036261857 0.0027578075 0.0041492525 0.00026470888 0.0028114303 0.0026708862 -0.0046776403 -0.0017719062 -0.003968733 0.004458208 -0.0028898378 0.0017623889 -0.0015536104 -0.0015352876 0.0005344507
